~o
<STREAMINFO> 1 21
<VECSIZE> 21<NULLD><USER><DIAGC>
~h "in"
<BEGINHMM>
<NUMSTATES> 6
<STATE> 2
<NUMMIXES> 2
<MIXTURE> 1 4.183995e-01
<MEAN> 21
 -3.557813e-01 -5.303622e-01 2.535052e+00 -4.251637e-01 -5.870810e-01 2.516608e+00 1.583385e-01 -2.024985e-01 -2.315280e-01 -8.799271e-02 -2.647572e-01 -2.431245e-01 -3.495663e-01 6.533871e-02 -2.509967e-01 3.574106e-01 1.054156e-01 -2.394992e-01 -6.938247e-02 -5.671886e-02 -1.844410e-02
<VARIANCE> 21
 1.000000e-03 1.000000e-03 5.611996e-02 1.000000e-03 1.000000e-03 5.690347e-02 1.000000e-03 1.000000e-03 1.000000e-03 1.000000e-03 1.000000e-03 1.668306e-03 1.000000e-03 1.043190e-03 1.143643e-03 1.000000e-03 1.000000e-03 1.043687e-03 1.000000e-03 1.000000e-03 1.000000e-03
<GCONST> -9.766752e+01
<MIXTURE> 2 5.815997e-01
<MEAN> 21
 -3.864090e-01 -4.179748e-01 2.798235e+00 -5.079445e-01 -6.623624e-01 2.740446e+00 1.629724e-01 -1.985127e-01 -2.476241e-01 -9.008228e-02 -2.711489e-01 -2.259379e-01 -3.165818e-01 1.773054e-01 -2.415603e-01 3.457898e-01 3.369249e-02 -2.827272e-01 -1.215355e-01 -2.443876e-01 -5.778838e-02
<VARIANCE> 21
 3.179071e-03 2.453533e-03 7.071135e-02 4.678899e-03 1.597018e-03 6.896806e-02 1.000000e-03 1.000000e-03 1.000000e-03 1.000000e-03 1.000000e-03 1.656906e-03 1.017175e-03 1.898237e-03 1.458816e-03 1.000000e-03 1.496391e-03 2.450483e-03 1.000000e-03 4.498567e-03 1.000000e-03
<GCONST> -8.956624e+01
<STATE> 3
<NUMMIXES> 2
<MIXTURE> 1 2.571566e-01
<MEAN> 21
 -4.047199e-01 -5.037573e-01 2.850198e+00 -4.731956e-01 -5.536916e-01 2.827121e+00 1.750191e-01 -2.165373e-01 -2.198916e-01 -7.391373e-02 -2.589453e-01 -2.281371e-01 -3.202409e-01 1.026021e-01 -2.640608e-01 3.840050e-01 1.284568e-01 -2.286737e-01 -6.847565e-02 -4.993434e-02 -2.307614e-02
<VARIANCE> 21
 4.210018e-03 1.432884e-03 5.951416e-02 4.053550e-03 1.863964e-03 5.539540e-02 1.000000e-03 1.000000e-03 1.000000e-03 1.571547e-03 1.017859e-03 1.724147e-03 1.268227e-03 3.057294e-03 3.022565e-03 1.649600e-03 1.878275e-03 1.872300e-03 1.935577e-03 1.727656e-03 1.000000e-03
<GCONST> -8.810631e+01
<MIXTURE> 2 7.428420e-01
<MEAN> 21
 -4.582458e-01 -5.623671e-01 3.008677e+00 -5.384756e-01 -6.162187e-01 2.984514e+00 1.736397e-01 -2.254214e-01 -2.164973e-01 -8.400801e-02 -2.644418e-01 -1.967479e-01 -3.276639e-01 6.115941e-02 -2.846893e-01 3.826576e-01 7.292446e-02 -2.624059e-01 -8.022989e-02 -5.385160e-02 -2.416322e-02
<VARIANCE> 21
 1.000000e-03 1.265364e-03 6.407409e-03 1.000000e-03 1.138120e-03 5.958214e-03 1.000000e-03 1.000000e-03 1.000000e-03 1.000000e-03 1.000000e-03 1.000529e-03 1.000000e-03 1.000000e-03 1.166134e-03 1.053355e-03 1.019978e-03 1.256202e-03 1.000000e-03 1.000000e-03 1.000000e-03
<GCONST> -1.020064e+02
<STATE> 4
<NUMMIXES> 2
<MIXTURE> 1 5.101025e-01
<MEAN> 21
 -4.219537e-01 -4.838609e-01 3.066972e+00 -5.796850e-01 -6.512638e-01 3.010031e+00 1.762809e-01 -2.425173e-01 -2.075547e-01 -9.640753e-02 -2.698532e-01 -1.906167e-01 -2.952037e-01 1.603558e-01 -2.717760e-01 3.616580e-01 4.936351e-02 -2.775345e-01 -1.577314e-01 -1.674028e-01 -5.693995e-02
<VARIANCE> 21
 1.000000e-03 1.756916e-03 8.974110e-03 1.356789e-03 1.345449e-03 6.787144e-03 1.000000e-03 1.000000e-03 1.000000e-03 1.000000e-03 1.000000e-03 1.000000e-03 1.000000e-03 1.541418e-03 1.000000e-03 1.000000e-03 1.000000e-03 1.031069e-03 1.000000e-03 2.529760e-03 1.188236e-03
<GCONST> -9.962876e+01
<MIXTURE> 2 4.898975e-01
<MEAN> 21
 -3.847609e-01 -4.614635e-01 2.906854e+00 -5.795574e-01 -7.122273e-01 2.812809e+00 1.629908e-01 -2.518034e-01 -2.051337e-01 -1.013174e-01 -2.745801e-01 -1.806655e-01 -2.922808e-01 1.912274e-01 -2.610048e-01 3.144984e-01 -8.827616e-03 -3.309025e-01 -1.947965e-01 -2.507639e-01 -9.404475e-02
<VARIANCE> 21
 3.258175e-03 3.130808e-03 6.904157e-02 4.558285e-03 1.981331e-03 5.809152e-02 1.000000e-03 1.000000e-03 1.000000e-03 1.000000e-03 1.000000e-03 1.946848e-03 1.833884e-03 2.553041e-03 3.007272e-03 1.161547e-03 2.268835e-03 2.060780e-03 2.112171e-03 3.863490e-03 2.229924e-03
<GCONST> -8.574322e+01
<STATE> 5
<MEAN> 21
 -3.571802e-01 -3.695236e-01 2.942594e+00 -6.228445e-01 -7.790751e-01 2.783898e+00 1.608386e-01 -2.398141e-01 -2.104813e-01 -1.077023e-01 -2.783492e-01 -1.803766e-01 -2.595821e-01 2.704931e-01 -2.193631e-01 2.769001e-01 -7.559715e-02 -3.607446e-01 -2.656642e-01 -4.095515e-01 -1.586962e-01
<VARIANCE> 21
 3.874830e-03 5.789023e-03 4.260844e-02 5.484544e-03 6.372852e-03 3.470771e-02 1.000000e-03 1.438246e-03 1.043007e-03 1.000000e-03 1.000000e-03 2.056303e-03 2.064164e-03 3.693333e-03 3.713829e-03 2.974145e-03 5.547968e-03 5.356478e-03 4.706200e-03 1.201847e-02 8.578901e-03
<GCONST> -7.736790e+01
<TRANSP> 6
 0.000000e+00 1.000000e+00 0.000000e+00 0.000000e+00 0.000000e+00 0.000000e+00
 0.000000e+00 8.139490e-01 1.860510e-01 0.000000e+00 0.000000e+00 0.000000e+00
 0.000000e+00 0.000000e+00 8.408502e-01 1.591498e-01 0.000000e+00 0.000000e+00
 0.000000e+00 0.000000e+00 0.000000e+00 5.906815e-01 4.093185e-01 0.000000e+00
 0.000000e+00 0.000000e+00 0.000000e+00 0.000000e+00 5.131110e-01 4.868890e-01
 0.000000e+00 0.000000e+00 0.000000e+00 0.000000e+00 0.000000e+00 0.000000e+00
<ENDHMM>
~h "on"
<BEGINHMM>
<NUMSTATES> 6
<STATE> 2
<NUMMIXES> 2
<MIXTURE> 1 4.804430e-01
<MEAN> 21
 -3.881997e-01 -5.455478e-01 2.485130e+00 -4.204618e-01 -5.550145e-01 2.475204e+00 1.264956e-01 -2.337988e-01 -2.314773e-01 -1.123214e-01 -2.240790e-01 -2.561538e-01 -3.668828e-01 8.900920e-02 -2.429546e-01 3.809034e-01 9.122246e-02 -2.101109e-01 -3.226204e-02 -9.466723e-03 -9.925075e-03
<VARIANCE> 21
 1.000000e-03 1.398914e-03 2.844999e-02 1.000000e-03 1.255120e-03 2.856006e-02 1.000000e-03 1.000000e-03 1.000000e-03 1.000000e-03 1.000000e-03 1.417673e-03 1.000000e-03 1.050560e-03 1.098557e-03 1.000000e-03 1.000000e-03 1.000000e-03 1.000000e-03 1.000000e-03 1.000000e-03
<GCONST> -9.871201e+01
<MIXTURE> 2 5.195566e-01
<MEAN> 21
 -4.075916e-01 -4.571044e-01 2.718898e+00 -4.939926e-01 -6.185316e-01 2.667640e+00 1.426956e-01 -2.284255e-01 -2.335412e-01 -1.060525e-01 -2.464764e-01 -2.385477e-01 -3.281137e-01 1.735221e-01 -2.485574e-01 3.699606e-01 5.578362e-02 -2.530009e-01 -8.640101e-02 -1.614273e-01 -5.125722e-02
<VARIANCE> 21
 5.669703e-03 3.361615e-03 1.110870e-01 6.447209e-03 2.287822e-03 1.054170e-01 1.806289e-03 1.000000e-03 1.464997e-03 1.259118e-03 1.027401e-03 2.227698e-03 1.000000e-03 3.620065e-03 2.869130e-03 1.022485e-03 2.502311e-03 2.695942e-03 3.771599e-03 5.170819e-03 1.122726e-03
<GCONST> -8.207086e+01
<STATE> 3
<NUMMIXES> 2
<MIXTURE> 1 1.893641e-01
<MEAN> 21
 -4.165711e-01 -5.070019e-01 2.788433e+00 -4.653122e-01 -5.326595e-01 2.771006e+00 1.365149e-01 -2.354907e-01 -2.200762e-01 -1.094521e-01 -2.320506e-01 -2.508456e-01 -3.483174e-01 1.328841e-01 -2.389850e-01 3.867264e-01 1.194220e-01 -1.973908e-01 -4.874115e-02 -2.565759e-02 -1.742722e-02
<VARIANCE> 21
 3.919544e-03 1.583481e-03 5.258216e-02 3.519012e-03 1.505597e-03 5.214744e-02 1.000000e-03 1.000000e-03 1.260519e-03 1.000000e-03 1.000000e-03 2.091727e-03 1.000000e-03 1.286691e-03 1.122153e-03 1.000000e-03 1.000000e-03 1.363130e-03 1.000000e-03 1.000000e-03 1.000000e-03
<GCONST> -9.341139e+01
<MIXTURE> 2 8.106362e-01
<MEAN> 21
 -5.092233e-01 -5.623887e-01 3.047636e+00 -5.570680e-01 -5.777962e-01 3.032289e+00 1.475463e-01 -2.420852e-01 -2.204224e-01 -1.079365e-01 -2.405854e-01 -2.245757e-01 -3.463199e-01 8.661841e-02 -2.875966e-01 4.001970e-01 8.888524e-02 -2.223657e-01 -4.784469e-02 -1.540752e-02 -1.534759e-02
<VARIANCE> 21
 1.000000e-03 1.118471e-03 6.095634e-03 1.000000e-03 1.093946e-03 5.665586e-03 1.000000e-03 1.000000e-03 1.000000e-03 1.000000e-03 1.000000e-03 1.364357e-03 1.000000e-03 1.000000e-03 1.241126e-03 1.000000e-03 1.000000e-03 1.198178e-03 1.000000e-03 1.000000e-03 1.000000e-03
<GCONST> -1.020162e+02
<STATE> 4
<NUMMIXES> 2
<MIXTURE> 1 4.046699e-01
<MEAN> 21
 -4.668147e-01 -4.875258e-01 3.061444e+00 -5.623313e-01 -5.810859e-01 3.009602e+00 1.470267e-01 -2.428642e-01 -2.195299e-01 -1.217988e-01 -2.459942e-01 -2.189277e-01 -3.202668e-01 1.647214e-01 -2.510894e-01 3.924795e-01 8.858413e-02 -2.379320e-01 -9.551653e-02 -9.356013e-02 -5.184191e-02
<VARIANCE> 21
 2.500463e-03 2.236744e-03 2.367786e-02 2.928806e-03 4.480112e-03 1.940270e-02 1.000000e-03 1.000000e-03 1.000000e-03 1.000000e-03 1.000000e-03 1.259106e-03 1.580348e-03 1.637443e-03 1.486259e-03 1.185769e-03 3.460015e-03 1.000000e-03 2.434769e-03 3.382961e-03 1.279595e-03
<GCONST> -9.069749e+01
<MIXTURE> 2 5.953297e-01
<MEAN> 21
 -3.704523e-01 -4.512793e-01 2.734564e+00 -5.317038e-01 -6.540015e-01 2.658005e+00 1.479249e-01 -2.642193e-01 -2.060496e-01 -1.258943e-01 -2.577735e-01 -2.091040e-01 -3.061523e-01 2.222143e-01 -2.497968e-01 3.531466e-01 3.345730e-02 -2.781341e-01 -1.612515e-01 -2.027222e-01 -7.655910e-02
<VARIANCE> 21
 6.462981e-03 1.597241e-03 1.257241e-01 4.033679e-03 1.555646e-03 1.149775e-01 1.000000e-03 1.000000e-03 1.000000e-03 1.000000e-03 1.000000e-03 1.688862e-03 1.169124e-03 1.422030e-03 1.719253e-03 1.000000e-03 1.450540e-03 1.238113e-03 1.923171e-03 2.211973e-03 1.117712e-03
<GCONST> -8.899873e+01
<STATE> 5
<MEAN> 21
 -3.767998e-01 -3.947725e-01 2.992019e+00 -5.968969e-01 -7.050393e-01 2.833184e+00 1.507726e-01 -2.567266e-01 -2.049614e-01 -1.253347e-01 -2.607934e-01 -2.049193e-01 -2.675501e-01 2.709349e-01 -2.122958e-01 3.314376e-01 -1.921892e-02 -3.149945e-01 -2.200971e-01 -3.102668e-01 -1.588351e-01
<VARIANCE> 21
 6.552695e-03 6.093323e-03 7.861328e-02 5.356451e-03 8.522336e-03 6.925812e-02 1.000000e-03 1.000000e-03 1.000000e-03 1.000000e-03 1.000000e-03 1.735596e-03 2.452582e-03 4.368030e-03 1.981115e-03 2.113515e-03 7.453187e-03 3.307801e-03 6.017752e-03 1.419911e-02 5.135086e-03
<GCONST> -7.671326e+01
<TRANSP> 6
 0.000000e+00 1.000000e+00 0.000000e+00 0.000000e+00 0.000000e+00 0.000000e+00
 0.000000e+00 8.343043e-01 1.656957e-01 0.000000e+00 0.000000e+00 0.000000e+00
 0.000000e+00 0.000000e+00 8.110883e-01 1.889118e-01 0.000000e+00 0.000000e+00
 0.000000e+00 0.000000e+00 0.000000e+00 4.913316e-01 5.086684e-01 0.000000e+00
 0.000000e+00 0.000000e+00 0.000000e+00 0.000000e+00 4.357491e-01 5.642508e-01
 0.000000e+00 0.000000e+00 0.000000e+00 0.000000e+00 0.000000e+00 0.000000e+00
<ENDHMM>
~h "orange"
<BEGINHMM>
<NUMSTATES> 6
<STATE> 2
<NUMMIXES> 2
<MIXTURE> 1 5.688773e-01
<MEAN> 21
 -4.005437e-01 -2.946840e-01 2.958526e+00 -6.878472e-01 -8.810023e-01 2.668810e+00 1.059116e-01 -2.430859e-01 -2.083887e-01 -8.964282e-02 -2.971507e-01 -1.962976e-01 -2.786377e-01 3.521909e-01 -1.373675e-01 1.616115e-01 -1.640622e-01 -3.979668e-01 -2.873035e-01 -5.863183e-01 -2.897162e-01
<VARIANCE> 21
 4.036708e-03 1.771242e-03 4.635158e-02 3.344701e-03 1.743265e-03 3.310127e-02 1.000000e-03 1.000000e-03 1.000000e-03 1.147040e-03 1.000000e-03 2.784947e-03 1.000000e-03 1.000000e-03 1.594071e-03 2.995644e-03 1.488017e-03 2.226891e-03 2.878057e-03 3.770192e-03 4.690937e-03
<GCONST> -8.754858e+01
<MIXTURE> 2 4.311225e-01
<MEAN> 21
 -4.238145e-01 -3.743421e-01 3.176527e+00 -8.401426e-01 -9.335546e-01 3.046723e+00 1.214921e-01 -2.623386e-01 -2.152229e-01 -1.131002e-01 -3.026559e-01 -1.384296e-01 -2.678735e-01 3.126323e-01 -1.711682e-01 1.094464e-01 -1.890101e-01 -3.247614e-01 -4.163281e-01 -5.592126e-01 -1.298031e-01
<VARIANCE> 21
 1.814460e-03 2.934858e-03 2.542890e-02 3.096555e-03 1.000000e-03 1.634138e-02 1.000000e-03 1.000000e-03 1.000000e-03 1.000000e-03 1.000000e-03 1.000000e-03 1.000000e-03 1.724594e-03 3.647512e-03 2.711770e-03 1.000000e-03 1.133961e-03 3.246635e-03 2.492490e-03 5.164361e-03
<GCONST> -9.094008e+01
<STATE> 3
<NUMMIXES> 2
<MIXTURE> 1 5.657578e-01
<MEAN> 21
 -4.643734e-01 -2.400355e-01 3.109088e+00 -7.842571e-01 -9.386610e-01 2.910537e+00 1.025933e-01 -2.174921e-01 -2.313238e-01 -1.162934e-01 -3.019367e-01 -1.342352e-01 -2.735386e-01 3.774736e-01 -9.848494e-02 1.602702e-01 -2.104517e-01 -3.302647e-01 -3.198836e-01 -6.986256e-01 -1.985511e-01
<VARIANCE> 21
 1.694418e-03 1.000000e-03 1.224249e-02 1.063351e-03 1.000000e-03 9.059816e-03 1.000000e-03 1.000000e-03 1.000000e-03 1.000000e-03 1.000000e-03 1.000000e-03 1.027961e-03 1.000000e-03 1.000000e-03 1.199345e-03 1.000000e-03 1.016589e-03 1.000000e-03 1.000000e-03 1.837091e-03
<GCONST> -1.003359e+02
<MIXTURE> 2 4.342422e-01
<MEAN> 21
 -4.843119e-01 -2.657970e-01 3.314965e+00 -8.901463e-01 -9.371506e-01 3.164053e+00 7.651475e-02 -2.189347e-01 -2.482241e-01 -1.121070e-01 -3.018110e-01 -1.434171e-01 -2.776861e-01 3.834303e-01 -7.988776e-02 6.958000e-02 -1.884561e-01 -3.070973e-01 -4.058343e-01 -6.713536e-01 -1.509118e-01
<VARIANCE> 21
 1.000000e-03 1.000000e-03 4.621582e-03 1.000000e-03 1.000000e-03 4.084899e-03 1.000000e-03 1.000000e-03 1.000000e-03 1.000000e-03 1.000000e-03 1.000000e-03 1.000000e-03 1.000000e-03 1.000000e-03 1.000000e-03 1.000000e-03 1.000000e-03 1.000000e-03 1.000000e-03 1.380768e-03
<GCONST> -1.032068e+02
<STATE> 4
<NUMMIXES> 2
<MIXTURE> 1 5.036383e-01
<MEAN> 21
 -4.061412e-01 -2.790850e-01 3.126181e+00 -8.048517e-01 -9.377607e-01 3.010567e+00 7.878795e-02 -2.366646e-01 -2.324195e-01 -1.169737e-01 -3.194812e-01 -1.295820e-01 -2.542574e-01 3.794746e-01 -1.102720e-01 1.047852e-01 -1.710966e-01 -3.086443e-01 -3.987105e-01 -6.586757e-01 -1.156141e-01
<VARIANCE> 21
 2.310077e-03 1.000000e-03 1.237513e-02 2.698924e-03 1.000000e-03 1.113372e-02 1.000000e-03 1.000000e-03 1.000000e-03 1.000000e-03 1.000000e-03 1.000000e-03 1.899336e-03 1.000000e-03 2.253827e-03 1.564692e-03 1.000000e-03 1.000000e-03 1.529164e-03 1.094353e-03 1.122990e-03
<GCONST> -9.717894e+01
<MIXTURE> 2 4.963616e-01
<MEAN> 21
 -3.577787e-01 -3.033091e-01 2.735953e+00 -7.363974e-01 -9.570157e-01 2.583375e+00 7.152160e-02 -2.455567e-01 -2.349941e-01 -1.112595e-01 -3.208454e-01 -9.378221e-02 -2.669185e-01 3.575070e-01 -9.040397e-02 9.852304e-02 -1.957296e-01 -3.871931e-01 -3.786187e-01 -6.537066e-01 -1.525774e-01
<VARIANCE> 21
 1.972850e-03 2.461909e-03 8.097337e-02 3.505704e-03 1.820947e-03 6.853028e-02 1.000000e-03 1.000000e-03 1.000000e-03 1.000000e-03 1.000000e-03 1.000000e-03 1.000000e-03 1.115493e-03 1.000000e-03 2.493166e-03 1.000000e-03 2.389610e-03 2.424208e-03 1.752183e-03 3.458075e-03
<GCONST> -8.983083e+01
<STATE> 5
<MEAN> 21
 -4.260397e-01 -3.353249e-01 3.099236e+00 -7.527990e-01 -9.040156e-01 2.924722e+00 1.061594e-01 -2.404924e-01 -2.286259e-01 -1.117851e-01 -3.051879e-01 -1.455604e-01 -2.664019e-01 3.217166e-01 -1.626097e-01 1.807352e-01 -1.572597e-01 -3.837297e-01 -3.267593e-01 -5.686907e-01 -1.745140e-01
<VARIANCE> 21
 5.638428e-03 3.450590e-03 5.051477e-02 7.232088e-03 4.017863e-03 4.158557e-02 1.000000e-03 1.000000e-03 1.000000e-03 1.000000e-03 1.000000e-03 1.420212e-03 4.040455e-03 3.138718e-03 3.176738e-03 5.360664e-03 3.315133e-03 4.686194e-03 1.279729e-02 7.609656e-03 6.396541e-03
<GCONST> -7.757655e+01
<TRANSP> 6
 0.000000e+00 1.000000e+00 0.000000e+00 0.000000e+00 0.000000e+00 0.000000e+00
 0.000000e+00 7.128123e-01 2.871877e-01 0.000000e+00 0.000000e+00 0.000000e+00
 0.000000e+00 0.000000e+00 8.955215e-01 1.044785e-01 0.000000e+00 0.000000e+00
 0.000000e+00 0.000000e+00 0.000000e+00 7.656884e-01 2.343116e-01 0.000000e+00
 0.000000e+00 0.000000e+00 0.000000e+00 0.000000e+00 5.057514e-01 4.942486e-01
 0.000000e+00 0.000000e+00 0.000000e+00 0.000000e+00 0.000000e+00 0.000000e+00
<ENDHMM>
~h "blue"
<BEGINHMM>
<NUMSTATES> 6
<STATE> 2
<NUMMIXES> 2
<MIXTURE> 1 4.450800e-01
<MEAN> 21
 -2.536581e-01 -2.786538e-01 2.936534e+00 -7.142222e-01 -8.750995e-01 2.712681e+00 1.346541e-01 -2.434938e-01 -1.879363e-01 -1.115775e-01 -2.905310e-01 -1.704857e-01 -1.543766e-01 3.888711e-01 -1.924859e-01 1.685566e-01 -1.590408e-01 -4.014702e-01 -4.605641e-01 -5.964457e-01 -2.238528e-01
<VARIANCE> 21
 5.674277e-03 3.668724e-03 5.138901e-02 5.423649e-03 3.085565e-03 4.599709e-02 1.000000e-03 1.061806e-03 1.000000e-03 1.000000e-03 1.000000e-03 2.402686e-03 1.706974e-03 1.973478e-03 1.808639e-03 3.478119e-03 2.222408e-03 3.196526e-03 4.964160e-03 5.800667e-03 6.634106e-03
<GCONST> -8.164291e+01
<MIXTURE> 2 5.549189e-01
<MEAN> 21
 -1.721713e-01 -2.796881e-01 2.575514e+00 -7.255003e-01 -9.274127e-01 2.466749e+00 1.355644e-01 -2.600859e-01 -1.842173e-01 -1.183089e-01 -3.177925e-01 -6.642116e-02 -1.845285e-01 4.045221e-01 -1.498345e-01 7.566581e-02 -1.767812e-01 -3.871167e-01 -5.533290e-01 -6.477246e-01 -1.087642e-01
<VARIANCE> 21
 1.202750e-03 1.560718e-03 3.803471e-03 2.152295e-03 1.000000e-03 5.662412e-03 1.034880e-03 1.000000e-03 1.000000e-03 1.000000e-03 1.000000e-03 1.000000e-03 1.077249e-03 1.000000e-03 1.292159e-03 1.505855e-03 1.753965e-03 2.778725e-03 2.034999e-03 2.655987e-03 3.994109e-03
<GCONST> -9.657101e+01
<STATE> 3
<NUMMIXES> 2
<MIXTURE> 1 4.926100e-01
<MEAN> 21
 -3.004391e-01 -2.584633e-01 3.149125e+00 -8.057888e-01 -9.471484e-01 2.940752e+00 1.724748e-01 -2.228680e-01 -1.682940e-01 -1.250889e-01 -2.985322e-01 -1.361364e-01 -1.469588e-01 4.077305e-01 -1.665356e-01 1.705933e-01 -2.206982e-01 -3.485986e-01 -5.053496e-01 -6.886851e-01 -2.083734e-01
<VARIANCE> 21
 1.016367e-03 1.218425e-03 4.301027e-03 1.000000e-03 1.000000e-03 5.435526e-03 1.000000e-03 1.000000e-03 1.000000e-03 1.000000e-03 1.000000e-03 1.000000e-03 1.000000e-03 1.000000e-03 1.304203e-03 1.000000e-03 1.000000e-03 1.383311e-03 1.276156e-03 1.524543e-03 2.916545e-03
<GCONST> -1.007758e+02
<MIXTURE> 2 5.073898e-01
<MEAN> 21
 -3.004507e-01 -2.847287e-01 3.238929e+00 -8.811213e-01 -9.292090e-01 3.110188e+00 1.258783e-01 -2.323468e-01 -2.085686e-01 -1.214692e-01 -2.997738e-01 -1.375508e-01 -1.555614e-01 4.079415e-01 -1.472178e-01 7.409243e-02 -1.850520e-01 -3.206073e-01 -5.806706e-01 -6.444803e-01 -1.287407e-01
<VARIANCE> 21
 1.643746e-03 1.466585e-03 2.269307e-02 1.733121e-03 1.000000e-03 1.825106e-02 1.000000e-03 1.000000e-03 1.000000e-03 1.000000e-03 1.000000e-03 1.000000e-03 1.209399e-03 1.033064e-03 1.426727e-03 1.000000e-03 1.000000e-03 1.000000e-03 2.035469e-03 2.745384e-03 2.395746e-03
<GCONST> -9.583894e+01
<STATE> 4
<NUMMIXES> 2
<MIXTURE> 1 6.712520e-01
<MEAN> 21
 -2.662973e-01 -2.758813e-01 2.992835e+00 -7.423233e-01 -9.200835e-01 2.832816e+00 1.386731e-01 -2.337950e-01 -1.689340e-01 -1.348332e-01 -3.102216e-01 -1.258467e-01 -1.848683e-01 3.922670e-01 -1.530057e-01 1.541145e-01 -1.789946e-01 -3.376533e-01 -4.760259e-01 -6.442021e-01 -1.600192e-01
<VARIANCE> 21
 3.351766e-03 1.000000e-03 9.593036e-03 1.336291e-03 1.000000e-03 5.639518e-03 1.000000e-03 1.000000e-03 1.000000e-03 1.000000e-03 1.000000e-03 1.000000e-03 1.000000e-03 1.000000e-03 1.430865e-03 1.136062e-03 1.024835e-03 1.434774e-03 1.650082e-03 1.000000e-03 4.937935e-03
<GCONST> -9.800806e+01
<MIXTURE> 2 3.287478e-01
<MEAN> 21
 -3.199113e-01 -3.431969e-01 3.004463e+00 -7.600600e-01 -8.951443e-01 2.838403e+00 1.339393e-01 -2.525457e-01 -1.876015e-01 -1.173675e-01 -3.043444e-01 -1.330315e-01 -2.125865e-01 3.485822e-01 -2.008037e-01 1.542788e-01 -1.518256e-01 -3.936748e-01 -4.401487e-01 -5.519474e-01 -1.660610e-01
<VARIANCE> 21
 5.825660e-03 1.768737e-03 6.217243e-02 5.920362e-03 2.092733e-03 5.554412e-02 1.000000e-03 1.000000e-03 1.000000e-03 1.000000e-03 1.000000e-03 1.218912e-03 1.604229e-03 1.371049e-03 1.782237e-03 3.655661e-03 1.837174e-03 5.607710e-03 5.545607e-03 4.189744e-03 6.699233e-03
<GCONST> -8.323060e+01
<STATE> 5
<MEAN> 21
 -3.103450e-01 -3.478976e-01 2.860724e+00 -6.778754e-01 -8.374971e-01 2.701432e+00 1.326596e-01 -2.582886e-01 -1.923377e-01 -1.077716e-01 -3.005324e-01 -1.368191e-01 -2.251528e-01 3.439596e-01 -1.884035e-01 2.010521e-01 -9.726096e-02 -3.783334e-01 -3.675304e-01 -4.895995e-01 -1.592915e-01
<VARIANCE> 21
 6.597274e-03 2.960485e-03 9.378602e-02 1.160224e-02 1.780524e-02 7.769123e-02 1.000000e-03 1.000000e-03 1.000000e-03 1.019306e-03 1.000000e-03 2.453669e-03 3.806664e-03 3.243492e-03 3.342128e-03 6.190809e-03 1.307910e-02 4.314773e-03 1.479234e-02 2.581171e-02 5.953022e-03
<GCONST> -7.104931e+01
<TRANSP> 6
 0.000000e+00 1.000000e+00 0.000000e+00 0.000000e+00 0.000000e+00 0.000000e+00
 0.000000e+00 8.026666e-01 1.973335e-01 0.000000e+00 0.000000e+00 0.000000e+00
 0.000000e+00 0.000000e+00 8.992504e-01 1.007496e-01 0.000000e+00 0.000000e+00
 0.000000e+00 0.000000e+00 0.000000e+00 7.810919e-01 2.189081e-01 0.000000e+00
 0.000000e+00 0.000000e+00 0.000000e+00 0.000000e+00 4.042109e-01 5.957891e-01
 0.000000e+00 0.000000e+00 0.000000e+00 0.000000e+00 0.000000e+00 0.000000e+00
<ENDHMM>
~h "behind"
<BEGINHMM>
<NUMSTATES> 6
<STATE> 2
<NUMMIXES> 2
<MIXTURE> 1 5.275965e-01
<MEAN> 21
 -4.568415e-01 -5.926486e-01 2.739875e+00 -4.822370e-01 -6.034032e-01 2.741347e+00 8.231982e-02 -2.653356e-01 -2.211692e-01 -3.800856e-02 -2.754499e-01 -2.273789e-01 -2.863526e-01 7.500437e-02 -3.630908e-01 3.343289e-01 9.207190e-02 -3.015824e-01 -2.539552e-02 -1.075455e-02 1.472428e-03
<VARIANCE> 21
 4.290258e-03 1.020039e-03 8.207913e-02 5.996227e-03 1.431277e-03 7.788786e-02 2.938126e-03 1.000000e-03 2.222509e-03 1.000000e-03 1.000000e-03 2.598870e-03 2.730335e-03 1.813369e-03 4.309286e-03 3.286300e-03 1.011717e-03 3.901318e-03 6.926658e-03 1.000000e-03 2.265741e-03
<GCONST> -8.287073e+01
<MIXTURE> 2 4.724029e-01
<MEAN> 21
 -3.883177e-01 -5.645062e-01 2.619475e+00 -4.831832e-01 -6.196293e-01 2.371185e+00 1.029968e-01 -2.939496e-01 -1.605644e-01 -3.918042e-02 -2.550271e-01 -2.666724e-01 -3.388018e-01 1.225694e-01 -2.527396e-01 2.335755e-01 4.963376e-02 -3.636518e-01 -9.486556e-02 -5.512314e-02 -2.482902e-01
<VARIANCE> 21
 2.270747e-03 1.691148e-03 4.426768e-02 3.610034e-03 2.132820e-03 3.997209e-02 1.000000e-03 1.000000e-03 1.000000e-03 1.000000e-03 1.000000e-03 2.815000e-03 2.403436e-03 1.353656e-03 3.694731e-03 1.761235e-03 1.409907e-03 2.739226e-03 7.050032e-03 3.275720e-03 4.151890e-03
<GCONST> -8.560040e+01
<STATE> 3
<NUMMIXES> 2
<MIXTURE> 1 2.639958e-01
<MEAN> 21
 -5.165959e-01 -6.389649e-01 2.791240e+00 -5.355360e-01 -6.595262e-01 2.770397e+00 1.070758e-01 -2.805038e-01 -1.481609e-01 -1.387274e-02 -2.722752e-01 -2.258557e-01 -3.255665e-01 4.302385e-02 -5.060742e-01 2.971439e-01 3.000112e-02 -3.571353e-01 -1.894006e-02 -2.056133e-02 -2.084352e-02
<VARIANCE> 21
 2.795495e-03 2.464705e-03 1.661952e-02 2.380650e-03 2.061704e-03 3.054006e-02 1.000000e-03 1.000000e-03 1.000000e-03 1.000000e-03 1.000000e-03 2.576828e-03 2.747021e-03 2.522745e-03 8.972199e-03 1.387774e-03 1.879488e-03 3.054274e-03 1.125446e-03 1.000000e-03 5.365185e-03
<GCONST> -8.776692e+01
<MIXTURE> 2 7.360044e-01
<MEAN> 21
 -4.941480e-01 -5.929809e-01 3.079104e+00 -5.694109e-01 -6.865088e-01 2.788159e+00 1.179588e-01 -3.098423e-01 -1.575188e-01 -1.681121e-02 -2.693766e-01 -2.508895e-01 -3.216636e-01 1.245191e-01 -2.692251e-01 2.641661e-01 5.516054e-03 -3.835458e-01 -7.526278e-02 -9.352794e-02 -2.909454e-01
<VARIANCE> 21
 2.748522e-03 2.074623e-03 1.622661e-02 3.068569e-03 1.973434e-03 1.241023e-02 1.000000e-03 1.000000e-03 1.000000e-03 1.000000e-03 1.000000e-03 2.165766e-03 1.482557e-03 2.118228e-03 2.327253e-03 1.401516e-03 1.443467e-03 3.503583e-03 5.912583e-03 3.178399e-03 3.846835e-03
<GCONST> -8.861953e+01
<STATE> 4
<NUMMIXES> 2
<MIXTURE> 1 5.374799e-01
<MEAN> 21
 -4.007886e-01 -4.890321e-01 2.511568e+00 -4.652450e-01 -5.935098e-01 2.314556e+00 1.029864e-01 -2.903771e-01 -1.880027e-01 -2.612358e-02 -2.761041e-01 -2.799365e-01 -3.142134e-01 1.980440e-01 -2.556872e-01 2.656828e-01 1.052049e-01 -3.100211e-01 -6.445634e-02 -1.044777e-01 -1.970116e-01
<VARIANCE> 21
 1.894546e-03 2.055915e-03 6.838401e-02 2.232889e-03 3.506941e-03 6.259515e-02 1.000000e-03 1.000000e-03 1.054298e-03 1.078116e-03 1.000000e-03 1.135707e-03 1.000000e-03 1.576707e-03 1.450364e-03 1.000000e-03 2.535840e-03 1.395794e-03 3.020836e-03 5.078176e-03 2.948934e-03
<GCONST> -8.852947e+01
<MIXTURE> 2 4.625199e-01
<MEAN> 21
 -4.151826e-01 -4.306001e-01 2.972070e+00 -5.856033e-01 -7.546714e-01 2.678411e+00 1.175524e-01 -2.924197e-01 -1.755526e-01 -4.458068e-02 -2.847787e-01 -2.298677e-01 -2.822671e-01 2.717797e-01 -2.308504e-01 2.433969e-01 -4.481924e-02 -4.005356e-01 -1.704207e-01 -3.240713e-01 -2.936590e-01
<VARIANCE> 21
 6.913194e-03 3.960474e-03 8.121805e-02 3.894649e-03 3.499035e-03 6.420778e-02 1.000000e-03 1.000000e-03 1.000000e-03 1.000000e-03 1.000000e-03 2.458252e-03 1.792987e-03 2.650076e-03 2.132745e-03 2.683166e-03 2.484041e-03 3.306093e-03 6.331665e-03 6.810208e-03 5.345439e-03
<GCONST> -8.023808e+01
<STATE> 5
<MEAN> 21
 -3.026496e-01 -3.860041e-01 2.700718e+00 -6.175563e-01 -8.125712e-01 2.524026e+00 1.079169e-01 -2.615357e-01 -1.968200e-01 -8.143823e-02 -3.022107e-01 -1.708713e-01 -2.581936e-01 2.811935e-01 -1.815443e-01 1.600415e-01 -8.762936e-02 -3.764416e-01 -3.149067e-01 -4.265671e-01 -1.766916e-01
<VARIANCE> 21
 1.162054e-02 1.641766e-02 7.741239e-02 1.256401e-02 2.016164e-02 5.093411e-02 2.851837e-03 2.481252e-03 1.273311e-03 1.000000e-03 1.000000e-03 6.268980e-03 5.125708e-03 1.179655e-02 1.071160e-02 1.058000e-02 1.397354e-02 5.121351e-03 3.118821e-02 4.468906e-02 1.680998e-02
<GCONST> -6.020337e+01
<TRANSP> 6
 0.000000e+00 1.000000e+00 0.000000e+00 0.000000e+00 0.000000e+00 0.000000e+00
 0.000000e+00 8.286296e-01 1.713704e-01 0.000000e+00 0.000000e+00 0.000000e+00
 0.000000e+00 0.000000e+00 8.627573e-01 1.372427e-01 0.000000e+00 0.000000e+00
 0.000000e+00 0.000000e+00 0.000000e+00 7.269040e-01 2.730961e-01 0.000000e+00
 0.000000e+00 0.000000e+00 0.000000e+00 0.000000e+00 7.243124e-01 2.756876e-01
 0.000000e+00 0.000000e+00 0.000000e+00 0.000000e+00 0.000000e+00 0.000000e+00
<ENDHMM>
~h "black"
<BEGINHMM>
<NUMSTATES> 6
<STATE> 2
<NUMMIXES> 2
<MIXTURE> 1 4.134471e-01
<MEAN> 21
 -2.739435e-01 -5.900872e-02 3.412180e+00 -8.827401e-01 -9.867668e-01 3.195841e+00 2.609492e-01 1.414896e-02 -2.247988e-01 -1.168544e-01 -3.216666e-01 -1.498771e-01 -2.212728e-01 3.549406e-01 -8.081339e-02 1.045048e-01 -2.051581e-01 -3.392550e-01 -6.087965e-01 -9.277580e-01 -2.163396e-01
<VARIANCE> 21
 2.245903e-03 1.122099e-03 2.130017e-02 4.575753e-03 1.000000e-03 2.584208e-02 1.000000e-03 3.160097e-03 1.138347e-03 1.000000e-03 1.000000e-03 1.000000e-03 1.000000e-03 1.618022e-03 1.000000e-03 3.378839e-03 1.000000e-03 1.000000e-03 4.509065e-03 1.928758e-03 2.922062e-03
<GCONST> -9.149747e+01
<MIXTURE> 2 5.865524e-01
<MEAN> 21
 -3.466909e-01 -1.073880e-01 3.140461e+00 -8.224790e-01 -9.532434e-01 3.012589e+00 2.306196e-01 2.475018e-02 -2.550102e-01 -1.065736e-01 -3.112805e-01 -1.426094e-01 -2.867928e-01 3.013598e-01 -1.190619e-01 1.123255e-01 -1.965060e-01 -3.354977e-01 -4.757881e-01 -8.458554e-01 -1.278720e-01
<VARIANCE> 21
 4.107872e-03 6.875883e-03 5.050408e-02 5.033011e-03 1.000000e-03 3.713910e-02 1.000000e-03 5.816387e-03 1.000000e-03 1.000000e-03 1.000000e-03 1.020698e-03 1.000000e-03 1.000000e-03 4.616756e-03 2.806757e-03 1.000000e-03 1.678022e-03 3.000061e-03 9.332959e-03 7.694711e-03
<GCONST> -8.374055e+01
<STATE> 3
<NUMMIXES> 2
<MIXTURE> 1 4.323190e-01
<MEAN> 21
 -2.791337e-01 -1.689184e-01 3.195580e+00 -7.886545e-01 -9.448583e-01 2.976196e+00 2.567331e-01 -1.126844e-01 -1.912095e-01 -1.226736e-01 -3.129677e-01 -1.330336e-01 -2.497851e-01 3.676773e-01 -1.142391e-01 1.621996e-01 -1.895829e-01 -3.560864e-01 -5.095208e-01 -7.759399e-01 -2.193841e-01
<VARIANCE> 21
 5.336977e-03 3.305120e-03 1.256358e-02 2.565903e-03 1.000000e-03 1.054117e-02 1.000000e-03 1.680533e-03 1.000000e-03 1.000000e-03 1.000000e-03 1.000000e-03 1.563757e-03 1.000000e-03 2.612959e-03 2.213326e-03 1.239193e-03 2.928072e-03 4.339088e-03 5.037192e-03 4.012257e-03
<GCONST> -8.928506e+01
<MIXTURE> 2 5.676804e-01
<MEAN> 21
 -2.194362e-01 -1.048940e-01 2.622044e+00 -7.466553e-01 -9.622669e-01 2.563665e+00 2.059728e-01 3.786973e-02 -2.883890e-01 -1.077132e-01 -3.302173e-01 -6.377147e-02 -2.635252e-01 3.006980e-01 -7.014325e-02 7.214061e-02 -1.792992e-01 -3.833343e-01 -5.272191e-01 -8.573729e-01 -5.837905e-02
<VARIANCE> 21
 4.543780e-03 3.718026e-03 1.250974e-02 2.251470e-03 1.562418e-03 1.238202e-02 1.703199e-03 6.229464e-03 1.414605e-03 1.000000e-03 1.000000e-03 1.000000e-03 1.527306e-03 1.940291e-03 1.566010e-03 1.000000e-03 1.810889e-03 3.172340e-03 4.624379e-03 6.721445e-03 5.079440e-03
<GCONST> -8.628627e+01
<STATE> 4
<NUMMIXES> 2
<MIXTURE> 1 2.572235e-01
<MEAN> 21
 -3.138449e-01 -4.609740e-01 2.507647e+00 -4.600415e-01 -6.278129e-01 2.425925e+00 1.207402e-01 -2.486827e-01 -2.065597e-01 -9.491710e-02 -2.740730e-01 -2.027464e-01 -3.389556e-01 1.681143e-01 -2.150886e-01 2.716033e-01 4.843737e-02 -3.241060e-01 -1.461965e-01 -1.668389e-01 -8.172165e-02
<VARIANCE> 21
 5.593373e-03 1.038469e-02 2.661845e-02 7.049013e-03 1.260999e-02 1.819842e-02 2.137836e-03 1.878838e-03 2.184669e-03 1.944185e-03 1.139441e-03 3.406346e-03 3.314795e-03 9.652860e-03 2.741743e-03 4.874321e-03 8.021931e-03 5.055516e-03 1.740671e-02 3.359920e-02 8.039188e-03
<GCONST> -6.932571e+01
<MIXTURE> 2 7.427768e-01
<MEAN> 21
 -1.832167e-01 -2.976225e-01 2.643082e+00 -6.974000e-01 -9.505895e-01 2.582382e+00 1.444028e-01 -1.998622e-01 -2.185944e-01 -1.041771e-01 -3.252846e-01 -6.335633e-02 -2.335036e-01 3.139717e-01 -1.469440e-01 5.982461e-02 -2.008740e-01 -4.129327e-01 -5.141833e-01 -6.529669e-01 -6.069994e-02
<VARIANCE> 21
 4.902915e-03 2.792479e-02 3.133281e-02 1.564002e-03 1.450466e-03 1.588165e-02 4.485061e-03 1.632558e-02 2.378165e-03 1.000000e-03 1.000000e-03 1.000000e-03 3.056796e-03 1.021182e-02 1.426179e-02 1.118014e-03 1.000000e-03 1.118077e-03 6.565485e-03 3.174044e-02 1.393000e-02
<GCONST> -7.506420e+01
<STATE> 5
<MEAN> 21
 -3.041560e-01 -4.011177e-01 2.570657e+00 -6.172658e-01 -7.280983e-01 2.462578e+00 1.538614e-01 -1.885511e-01 -2.355032e-01 -7.080947e-02 -2.793069e-01 -1.983528e-01 -2.520103e-01 2.126478e-01 -2.352553e-01 1.967689e-01 -9.851748e-03 -3.547953e-01 -3.131098e-01 -3.269805e-01 -1.080789e-01
<VARIANCE> 21
 1.298285e-02 3.018896e-02 1.874933e-01 2.695764e-02 3.073088e-02 1.267832e-01 6.349348e-03 7.060995e-03 2.386509e-03 3.434689e-03 1.991722e-03 6.124525e-03 4.866122e-03 2.044296e-02 1.403492e-02 9.521279e-03 1.770496e-02 7.178728e-03 6.086784e-02 9.771144e-02 1.467061e-02
<GCONST> -4.957604e+01
<TRANSP> 6
 0.000000e+00 1.000000e+00 0.000000e+00 0.000000e+00 0.000000e+00 0.000000e+00
 0.000000e+00 9.034513e-01 9.654871e-02 0.000000e+00 0.000000e+00 0.000000e+00
 0.000000e+00 0.000000e+00 8.942802e-01 1.057198e-01 0.000000e+00 0.000000e+00
 0.000000e+00 0.000000e+00 0.000000e+00 9.750541e-01 2.494583e-02 0.000000e+00
 0.000000e+00 0.000000e+00 0.000000e+00 0.000000e+00 6.637051e-01 3.362949e-01
 0.000000e+00 0.000000e+00 0.000000e+00 0.000000e+00 0.000000e+00 0.000000e+00
<ENDHMM>
~h "flowers"
<BEGINHMM>
<NUMSTATES> 6
<STATE> 2
<NUMMIXES> 2
<MIXTURE> 1 5.307025e-01
<MEAN> 21
 -3.504588e-01 -2.790580e-01 3.079360e+00 -7.598536e-01 -9.197708e-01 2.877213e+00 9.228924e-02 -2.544596e-01 -1.953941e-01 -1.193615e-01 -3.109691e-01 -1.340081e-01 -2.276800e-01 4.001594e-01 -8.087231e-02 1.288437e-01 -1.714816e-01 -3.313863e-01 -4.093948e-01 -6.407127e-01 -2.021465e-01
<VARIANCE> 21
 3.185659e-03 2.403869e-03 1.674615e-02 3.515230e-03 1.088214e-03 1.802726e-02 1.499050e-03 1.000000e-03 1.000000e-03 1.000000e-03 1.000000e-03 1.170720e-03 1.000000e-03 1.630119e-03 1.254210e-03 2.046578e-03 1.000000e-03 2.861263e-03 4.929096e-03 4.330460e-03 8.689586e-03
<GCONST> -8.911201e+01
<MIXTURE> 2 4.692968e-01
<MEAN> 21
 -3.225572e-01 -2.819680e-01 2.664849e+00 -7.203792e-01 -9.425263e-01 2.513693e+00 4.640356e-02 -2.581616e-01 -2.160325e-01 -1.030587e-01 -3.233935e-01 -7.953646e-02 -2.642733e-01 3.809813e-01 -6.408656e-02 5.019799e-02 -1.925621e-01 -3.925107e-01 -3.978220e-01 -6.605583e-01 -1.511559e-01
<VARIANCE> 21
 3.302141e-03 2.613651e-03 8.874700e-03 1.114924e-03 1.000000e-03 1.058780e-02 1.000000e-03 1.000000e-03 1.000000e-03 1.000000e-03 1.000000e-03 1.000000e-03 1.287777e-03 2.012251e-03 1.527178e-03 1.328995e-03 1.000000e-03 1.898070e-03 2.290722e-03 2.637867e-03 4.069794e-03
<GCONST> -9.415714e+01
<STATE> 3
<NUMMIXES> 2
<MIXTURE> 1 7.892916e-01
<MEAN> 21
 -4.714658e-01 -2.572142e-01 3.196598e+00 -8.016629e-01 -9.572551e-01 2.965123e+00 7.283162e-02 -2.398093e-01 -2.166025e-01 -1.230191e-01 -3.092550e-01 -1.407092e-01 -2.483220e-01 4.001710e-01 -7.818014e-02 1.671907e-01 -2.149226e-01 -3.364371e-01 -3.301971e-01 -7.000409e-01 -2.314741e-01
<VARIANCE> 21
 3.067294e-03 1.092131e-03 7.851483e-03 1.124187e-03 1.000000e-03 5.146940e-03 1.000000e-03 1.000000e-03 1.000000e-03 1.000000e-03 1.000000e-03 1.000000e-03 1.000000e-03 1.143216e-03 1.000000e-03 1.151124e-03 1.000000e-03 1.000000e-03 2.834486e-03 1.000000e-03 3.676393e-03
<GCONST> -9.882397e+01
<MIXTURE> 2 2.107068e-01
<MEAN> 21
 -3.489463e-01 -4.799798e-01 3.377244e+00 -8.517590e-01 -9.940011e-01 3.154050e+00 8.938438e-02 -2.700411e-01 -2.126335e-01 -1.331247e-01 -3.258439e-01 -1.378841e-01 -1.784739e-01 2.424686e-01 -5.994885e-02 1.350792e-01 -2.002443e-01 -3.395810e-01 -5.028127e-01 -5.140213e-01 -2.231942e-01
<VARIANCE> 21
 7.475032e-03 7.103319e-03 6.403600e-02 4.585463e-03 4.804668e-03 4.779300e-02 1.000000e-03 1.000000e-03 1.000000e-03 1.000000e-03 1.000000e-03 1.000000e-03 2.095987e-03 3.867358e-03 2.778354e-03 3.922322e-03 1.633687e-03 2.020031e-03 9.034341e-03 5.540786e-03 7.617455e-03
<GCONST> -7.975780e+01
<STATE> 4
<NUMMIXES> 2
<MIXTURE> 1 5.302117e-01
<MEAN> 21
 -4.647824e-01 -2.622771e-01 3.371973e+00 -9.022303e-01 -9.386150e-01 3.188106e+00 6.644343e-02 -2.423128e-01 -2.178030e-01 -1.170377e-01 -3.050349e-01 -1.403708e-01 -2.514857e-01 4.250892e-01 -5.905654e-02 6.660565e-02 -1.841910e-01 -3.060982e-01 -4.374479e-01 -6.763379e-01 -1.838670e-01
<VARIANCE> 21
 3.812583e-03 1.171429e-03 4.669950e-03 1.000000e-03 1.000000e-03 2.640371e-03 1.000000e-03 1.000000e-03 1.000000e-03 1.000000e-03 1.000000e-03 1.000000e-03 1.484978e-03 1.019033e-03 1.000000e-03 1.000000e-03 1.000000e-03 1.000000e-03 3.405202e-03 1.000000e-03 1.979175e-03
<GCONST> -1.001366e+02
<MIXTURE> 2 4.697878e-01
<MEAN> 21
 -5.060975e-01 -3.561576e-01 3.293355e+00 -8.786386e-01 -9.611101e-01 3.155271e+00 5.078104e-02 -2.543211e-01 -2.369777e-01 -1.135506e-01 -3.143373e-01 -1.442892e-01 -2.702166e-01 3.316001e-01 -1.072152e-01 9.493441e-02 -1.932814e-01 -3.161001e-01 -3.725411e-01 -6.049524e-01 -1.380842e-01
<VARIANCE> 21
 3.255666e-03 1.539067e-03 4.016901e-02 4.759863e-03 1.078416e-03 3.013230e-02 1.000000e-03 1.000000e-03 1.000000e-03 1.000000e-03 1.000000e-03 1.000000e-03 1.000000e-03 1.017205e-03 3.679881e-03 3.232700e-03 1.000000e-03 1.000000e-03 3.456393e-03 3.512555e-03 4.741874e-03
<GCONST> -8.957520e+01
<STATE> 5
<MEAN> 21
 -4.270125e-01 -4.100471e-01 2.964137e+00 -8.020455e-01 -9.408826e-01 2.956709e+00 8.416309e-02 -2.667497e-01 -2.334088e-01 -1.145081e-01 -3.102783e-01 -1.324482e-01 -2.542640e-01 2.730671e-01 -2.492026e-01 1.273855e-01 -1.900858e-01 -3.303935e-01 -3.750331e-01 -5.308355e-01 -7.428398e-03
<VARIANCE> 21
 2.727269e-03 2.833795e-03 2.800909e-02 3.963965e-03 1.366099e-03 2.808042e-02 1.000000e-03 1.000000e-03 1.000000e-03 1.000000e-03 1.000000e-03 1.000000e-03 1.861272e-03 1.966448e-03 4.025565e-03 2.953665e-03 1.329604e-03 1.131286e-03 3.107264e-03 4.868793e-03 5.642997e-03
<GCONST> -8.743727e+01
<TRANSP> 6
 0.000000e+00 1.000000e+00 0.000000e+00 0.000000e+00 0.000000e+00 0.000000e+00
 0.000000e+00 8.179988e-01 1.820012e-01 0.000000e+00 0.000000e+00 0.000000e+00
 0.000000e+00 0.000000e+00 8.941728e-01 1.058272e-01 0.000000e+00 0.000000e+00
 0.000000e+00 0.000000e+00 0.000000e+00 8.758363e-01 1.241637e-01 0.000000e+00
 0.000000e+00 0.000000e+00 0.000000e+00 0.000000e+00 6.603112e-01 3.396889e-01
 0.000000e+00 0.000000e+00 0.000000e+00 0.000000e+00 0.000000e+00 0.000000e+00
<ENDHMM>
~h "snake"
<BEGINHMM>
<NUMSTATES> 6
<STATE> 2
<NUMMIXES> 2
<MIXTURE> 1 6.387504e-01
<MEAN> 21
 -4.005654e-01 -2.973427e-01 3.147105e+00 -8.063694e-01 -9.503101e-01 2.984452e+00 1.789833e-01 -2.005405e-01 -2.085628e-01 -1.096455e-01 -3.121497e-01 -1.331492e-01 -2.938396e-01 3.278761e-01 -1.420960e-01 1.361593e-01 -1.964265e-01 -3.303860e-01 -4.058040e-01 -6.529674e-01 -1.626532e-01
<VARIANCE> 21
 3.749812e-03 1.297012e-03 1.019481e-02 1.968300e-03 1.000000e-03 9.428264e-03 1.000000e-03 1.000000e-03 1.000000e-03 1.000000e-03 1.000000e-03 1.000000e-03 1.351918e-03 1.000000e-03 2.229787e-03 1.784937e-03 1.000000e-03 1.000000e-03 3.095390e-03 1.521307e-03 2.362569e-03
<GCONST> -9.555087e+01
<MIXTURE> 2 3.612485e-01
<MEAN> 21
 -3.964878e-01 -3.504694e-01 3.380526e+00 -9.074407e-01 -9.636851e-01 3.219506e+00 1.624834e-01 -2.071221e-01 -2.302018e-01 -9.979610e-02 -3.143923e-01 -1.526397e-01 -2.678291e-01 3.098833e-01 -1.152014e-01 6.064066e-02 -1.883453e-01 -3.182733e-01 -5.109529e-01 -6.132157e-01 -1.610201e-01
<VARIANCE> 21
 3.391129e-03 7.210836e-03 3.390455e-02 2.194481e-03 2.596718e-03 2.553344e-02 1.000000e-03 1.314748e-03 1.000000e-03 1.000000e-03 1.000000e-03 1.000000e-03 3.676718e-03 4.250407e-03 2.319815e-03 1.548913e-03 1.000000e-03 1.278095e-03 5.295610e-03 4.385231e-03 3.220849e-03
<GCONST> -8.590511e+01
<STATE> 3
<NUMMIXES> 2
<MIXTURE> 1 5.063835e-01
<MEAN> 21
 -4.179594e-01 -3.718764e-01 3.010738e+00 -7.982951e-01 -9.341042e-01 2.960216e+00 1.562464e-01 -2.147695e-01 -2.233775e-01 -1.094730e-01 -3.118106e-01 -1.322923e-01 -3.133038e-01 2.597869e-01 -2.233967e-01 1.218170e-01 -1.805083e-01 -3.296090e-01 -3.803357e-01 -5.622278e-01 -5.052211e-02
<VARIANCE> 21
 3.178436e-03 1.381210e-03 2.011286e-02 3.946404e-03 1.000000e-03 1.695024e-02 1.000000e-03 1.000000e-03 1.000000e-03 1.000000e-03 1.000000e-03 1.000000e-03 1.153704e-03 1.092117e-03 1.990438e-03 2.392858e-03 1.101300e-03 1.099631e-03 3.113755e-03 2.172088e-03 2.655024e-03
<GCONST> -9.291227e+01
<MIXTURE> 2 4.936160e-01
<MEAN> 21
 -4.394880e-01 -4.650869e-01 3.002164e+00 -8.526562e-01 -9.361314e-01 3.062876e+00 1.404937e-01 -2.216033e-01 -2.480229e-01 -1.075739e-01 -3.043111e-01 -1.419664e-01 -2.836767e-01 1.745851e-01 -3.330091e-01 1.044490e-01 -1.908548e-01 -3.255093e-01 -4.131682e-01 -4.710445e-01 6.071175e-02
<VARIANCE> 21
 1.000000e-03 2.334739e-03 6.466051e-03 1.943457e-03 1.000000e-03 7.839138e-03 1.000000e-03 1.000000e-03 1.000000e-03 1.000000e-03 1.000000e-03 1.000000e-03 1.000000e-03 1.858432e-03 2.267597e-03 3.746178e-03 1.000000e-03 1.000000e-03 2.563631e-03 2.804286e-03 2.928551e-03
<GCONST> -9.522311e+01
<STATE> 4
<NUMMIXES> 2
<MIXTURE> 1 2.440660e-01
<MEAN> 21
 -3.240761e-01 -5.040076e-01 2.666100e+00 -7.446529e-01 -8.916593e-01 2.707631e+00 1.678435e-01 -2.303870e-01 -2.397160e-01 -1.128092e-01 -3.229257e-01 -1.201930e-01 -2.831092e-01 1.426574e-01 -2.877609e-01 1.286583e-01 -1.220197e-01 -3.625949e-01 -4.205767e-01 -3.876517e-01 4.153077e-02
<VARIANCE> 21
 6.425186e-03 1.484403e-02 1.748111e-01 1.035287e-02 3.531312e-03 1.058723e-01 1.999916e-03 2.850294e-03 1.009688e-03 1.000000e-03 1.000000e-03 3.551176e-03 2.875156e-03 1.043939e-02 5.853690e-03 3.752445e-03 1.926284e-03 2.620845e-03 1.289097e-02 1.971956e-02 1.706219e-02
<GCONST> -6.898204e+01
<MIXTURE> 2 7.559334e-01
<MEAN> 21
 -3.670006e-01 -5.519658e-01 2.796070e+00 -7.625098e-01 -9.236823e-01 2.869276e+00 1.362269e-01 -2.259106e-01 -2.463665e-01 -1.147791e-01 -3.097412e-01 -1.308921e-01 -2.556791e-01 8.730955e-02 -3.743015e-01 1.493569e-01 -1.719057e-01 -3.913508e-01 -3.955092e-01 -3.717165e-01 7.320596e-02
<VARIANCE> 21
 2.552509e-03 3.364022e-03 2.510392e-02 2.657252e-03 1.000000e-03 1.141656e-02 1.000000e-03 1.000000e-03 1.260615e-03 1.000000e-03 1.000000e-03 1.000000e-03 1.900689e-03 2.946770e-03 2.714768e-03 2.245015e-03 1.230348e-03 6.018231e-03 1.860625e-03 4.116017e-03 1.480439e-02
<GCONST> -8.718708e+01
<STATE> 5
<MEAN> 21
 -4.158610e-01 -5.310577e-01 2.933839e+00 -6.953946e-01 -7.912098e-01 2.827192e+00 1.398256e-01 -2.373098e-01 -2.277287e-01 -9.839522e-02 -2.812511e-01 -1.795176e-01 -2.810226e-01 1.192334e-01 -3.167010e-01 2.244730e-01 -7.298048e-02 -4.307510e-01 -2.795337e-01 -2.601520e-01 -1.066472e-01
<VARIANCE> 21
 2.922695e-03 1.321464e-02 3.917925e-02 5.720361e-03 5.419338e-03 3.064961e-02 1.000000e-03 1.611326e-03 1.337876e-03 1.000000e-03 1.000000e-03 2.278392e-03 1.628011e-03 8.752177e-03 6.378729e-03 5.994107e-03 3.854780e-03 5.327410e-03 7.418712e-03 2.597485e-02 5.599250e-03
<GCONST> -7.439087e+01
<TRANSP> 6
 0.000000e+00 1.000000e+00 0.000000e+00 0.000000e+00 0.000000e+00 0.000000e+00
 0.000000e+00 8.977289e-01 1.022711e-01 0.000000e+00 0.000000e+00 0.000000e+00
 0.000000e+00 0.000000e+00 8.311312e-01 1.688688e-01 0.000000e+00 0.000000e+00
 0.000000e+00 0.000000e+00 0.000000e+00 7.525960e-01 2.474040e-01 0.000000e+00
 0.000000e+00 0.000000e+00 0.000000e+00 0.000000e+00 5.976908e-01 4.023092e-01
 0.000000e+00 0.000000e+00 0.000000e+00 0.000000e+00 0.000000e+00 0.000000e+00
<ENDHMM>
~h "bed"
<BEGINHMM>
<NUMSTATES> 6
<STATE> 2
<NUMMIXES> 2
<MIXTURE> 1 4.012785e-01
<MEAN> 21
 -3.218476e-01 -4.852158e-01 2.479064e+00 -4.638064e-01 -6.174173e-01 2.412350e+00 9.947815e-02 -2.626680e-01 -2.108256e-01 -9.327967e-02 -2.765389e-01 -2.049408e-01 -3.298855e-01 1.561072e-01 -2.342137e-01 2.614771e-01 6.070590e-02 -3.145360e-01 -1.419587e-01 -1.322014e-01 -6.671390e-02
<VARIANCE> 21
 4.863415e-03 1.218394e-02 2.294072e-02 6.558780e-03 1.297226e-02 1.633494e-02 1.213892e-03 1.031070e-03 1.911812e-03 2.370507e-03 1.285730e-03 2.338237e-03 3.493414e-03 1.272396e-02 4.386442e-03 5.881747e-03 9.141595e-03 4.913696e-03 1.785703e-02 2.135449e-02 7.042316e-03
<GCONST> -7.043425e+01
<MIXTURE> 2 5.987166e-01
<MEAN> 21
 -2.071602e-01 -3.600018e-01 2.716924e+00 -7.076436e-01 -9.502314e-01 2.588016e+00 9.459667e-02 -2.770724e-01 -1.854898e-01 -1.147202e-01 -3.220813e-01 -7.474678e-02 -2.134347e-01 3.265950e-01 -1.349901e-01 6.656492e-02 -2.068820e-01 -4.082395e-01 -5.004834e-01 -5.902296e-01 -1.289089e-01
<VARIANCE> 21
 5.325975e-03 1.904388e-02 4.145546e-02 2.307900e-03 2.150432e-03 2.266870e-02 3.995612e-03 1.633801e-03 1.146144e-03 1.000000e-03 1.000000e-03 1.000000e-03 2.360925e-03 1.238844e-02 1.452500e-02 1.296969e-03 1.000000e-03 1.654762e-03 5.380838e-03 1.996974e-02 1.208027e-02
<GCONST> -7.740397e+01
<STATE> 3
<NUMMIXES> 2
<MIXTURE> 1 5.061522e-01
<MEAN> 21
 -3.562618e-01 -4.089991e-01 2.874415e+00 -4.249846e-01 -4.228744e-01 2.858776e+00 7.430099e-02 -3.214779e-01 -1.567091e-01 -4.905441e-02 -2.337220e-01 -2.299657e-01 -2.341670e-01 3.735686e-01 -1.167218e-01 3.647112e-01 2.352728e-01 -2.042685e-02 -6.872278e-02 -1.387530e-02 -1.563897e-02
<VARIANCE> 21
 2.821481e-03 3.930273e-03 6.931751e-02 3.577458e-03 4.369786e-03 6.922044e-02 1.000000e-03 1.000000e-03 1.000000e-03 1.000000e-03 1.000000e-03 1.000000e-03 1.000000e-03 2.614131e-03 3.103482e-03 1.000000e-03 2.551390e-03 5.696158e-03 3.581191e-03 3.332631e-03 1.000000e-03
<GCONST> -8.558676e+01
<MIXTURE> 2 4.938478e-01
<MEAN> 21
 -3.411142e-01 -3.358425e-01 3.026467e+00 -6.629244e-01 -8.274836e-01 2.767108e+00 1.023574e-01 -2.802453e-01 -1.828440e-01 -1.150304e-01 -2.976449e-01 -1.678880e-01 -2.077100e-01 3.680242e-01 -9.465162e-02 2.321543e-01 -1.020697e-01 -3.340716e-01 -3.218102e-01 -4.916411e-01 -2.593587e-01
<VARIANCE> 21
 5.947613e-03 5.740000e-03 9.922130e-02 1.419403e-02 1.266047e-02 8.789659e-02 1.000000e-03 1.000000e-03 1.000000e-03 1.000000e-03 1.000000e-03 2.404769e-03 1.434322e-03 3.450398e-03 4.601602e-03 1.203149e-02 1.041414e-02 4.909096e-03 1.659000e-02 2.289868e-02 7.797190e-03
<GCONST> -7.025371e+01
<STATE> 4
<NUMMIXES> 2
<MIXTURE> 1 3.636324e-01
<MEAN> 21
 -3.294785e-01 -3.980680e-01 3.058350e+00 -7.733138e-01 -9.327815e-01 2.771679e+00 7.931913e-02 -2.790745e-01 -1.877142e-01 -1.334528e-01 -3.102917e-01 -1.284015e-01 -1.859608e-01 3.354298e-01 -5.498840e-02 1.491088e-01 -1.742075e-01 -3.771688e-01 -4.438353e-01 -5.347135e-01 -2.866709e-01
<VARIANCE> 21
 3.513467e-03 9.260356e-03 9.514628e-02 8.349292e-03 8.302880e-03 8.020207e-02 1.000000e-03 1.000000e-03 1.000000e-03 1.000000e-03 1.000000e-03 2.665892e-03 1.141179e-03 6.431736e-03 6.031057e-03 5.082487e-03 6.324315e-03 5.289374e-03 1.015052e-02 1.942159e-02 1.291664e-02
<GCONST> -7.205725e+01
<MIXTURE> 2 6.363680e-01
<MEAN> 21
 -2.651351e-01 -3.022753e-01 2.813616e+00 -7.195110e-01 -9.760690e-01 2.629548e+00 3.640505e-02 -2.730121e-01 -1.990966e-01 -1.210680e-01 -3.301942e-01 -6.344386e-02 -2.108647e-01 3.983547e-01 -3.917278e-02 7.531589e-02 -2.146697e-01 -3.984504e-01 -4.543760e-01 -6.737936e-01 -1.840673e-01
<VARIANCE> 21
 2.856712e-03 2.894703e-03 1.289552e-02 1.504001e-03 1.000000e-03 1.364604e-02 1.021629e-03 1.000000e-03 1.000000e-03 1.000000e-03 1.000000e-03 1.000000e-03 1.017322e-03 1.797860e-03 2.277493e-03 1.000000e-03 1.000000e-03 1.000000e-03 2.194401e-03 2.416604e-03 3.776823e-03
<GCONST> -9.433103e+01
<STATE> 5
<MEAN> 21
 -3.981555e-01 -3.333874e-01 3.365303e+00 -8.496675e-01 -9.663349e-01 3.102897e+00 6.644890e-02 -2.660024e-01 -1.917708e-01 -1.394281e-01 -3.066477e-01 -1.389580e-01 -1.801811e-01 3.914712e-01 -5.061254e-02 1.334544e-01 -2.154036e-01 -3.302155e-01 -4.515121e-01 -6.329476e-01 -2.624058e-01
<VARIANCE> 21
 3.385255e-03 7.481306e-03 4.300926e-02 5.802487e-03 1.978755e-03 3.172335e-02 1.000000e-03 1.000000e-03 1.000000e-03 1.000000e-03 1.000000e-03 1.000000e-03 1.000000e-03 6.459037e-03 6.777096e-03 3.550610e-03 1.485370e-03 1.343574e-03 5.711322e-03 8.997374e-03 7.580053e-03
<GCONST> -8.187434e+01
<TRANSP> 6
 0.000000e+00 1.000000e+00 0.000000e+00 0.000000e+00 0.000000e+00 0.000000e+00
 0.000000e+00 9.427893e-01 5.721069e-02 0.000000e+00 0.000000e+00 0.000000e+00
 0.000000e+00 0.000000e+00 7.335064e-01 2.664936e-01 0.000000e+00 0.000000e+00
 0.000000e+00 0.000000e+00 0.000000e+00 8.163477e-01 1.836523e-01 0.000000e+00
 0.000000e+00 0.000000e+00 0.000000e+00 0.000000e+00 9.122947e-01 8.770531e-02
 0.000000e+00 0.000000e+00 0.000000e+00 0.000000e+00 0.000000e+00 0.000000e+00
<ENDHMM>
~h "box"
<BEGINHMM>
<NUMSTATES> 6
<STATE> 2
<NUMMIXES> 2
<MIXTURE> 1 4.928359e-01
<MEAN> 21
 -4.092852e-01 -3.541558e-01 2.941147e+00 -5.966337e-01 -5.742770e-01 3.036355e+00 1.439131e-01 -2.033036e-01 -2.613288e-01 -1.107855e-01 -2.738421e-01 -1.769932e-01 -2.550243e-01 2.587506e-01 -2.657232e-01 3.421682e-01 1.189644e-01 -1.971308e-01 -1.873485e-01 -2.201212e-01 9.520801e-02
<VARIANCE> 21
 1.000000e-03 1.502489e-03 4.965882e-03 1.000000e-03 1.202814e-03 7.005550e-03 1.000000e-03 1.000000e-03 1.000000e-03 1.000000e-03 1.000000e-03 1.000000e-03 1.000000e-03 1.000000e-03 1.508710e-03 1.000000e-03 1.101243e-03 1.894421e-03 1.353589e-03 1.442709e-03 3.230662e-03
<GCONST> -9.933779e+01
<MIXTURE> 2 5.071639e-01
<MEAN> 21
 -3.179584e-01 -3.781705e-01 2.694011e+00 -5.325791e-01 -6.207144e-01 2.749809e+00 1.566256e-01 -1.964241e-01 -2.353535e-01 -1.309419e-01 -2.829309e-01 -1.620778e-01 -2.692377e-01 2.320297e-01 -2.507484e-01 3.361988e-01 8.532293e-02 -2.489966e-01 -2.146207e-01 -2.425440e-01 5.579801e-02
<VARIANCE> 21
 2.198597e-03 6.656161e-03 6.646864e-02 7.924901e-03 3.916257e-03 5.045828e-02 1.677910e-03 1.969760e-03 1.035885e-03 1.000000e-03 1.000000e-03 1.328038e-03 3.607371e-03 1.003311e-02 1.714392e-03 1.525079e-03 2.526671e-03 2.320862e-03 7.559574e-03 1.112242e-02 6.367038e-03
<GCONST> -7.811491e+01
<STATE> 3
<NUMMIXES> 2
<MIXTURE> 1 5.057428e-01
<MEAN> 21
 -4.145623e-01 -3.981529e-01 2.812067e+00 -5.394378e-01 -5.225874e-01 3.008583e+00 1.300940e-01 -1.924047e-01 -2.930870e-01 -1.085159e-01 -2.500817e-01 -1.830939e-01 -2.772281e-01 1.915633e-01 -2.857077e-01 3.617897e-01 1.402080e-01 -1.570578e-01 -1.248755e-01 -1.244345e-01 1.965156e-01
<VARIANCE> 21
 1.761396e-03 1.670534e-03 9.476155e-03 3.040109e-03 1.976656e-03 7.381854e-03 1.000000e-03 1.000000e-03 1.000000e-03 1.000000e-03 1.000000e-03 1.000000e-03 1.000000e-03 1.276551e-03 1.000000e-03 1.182687e-03 1.639973e-03 2.063080e-03 2.730843e-03 1.728831e-03 2.141405e-03
<GCONST> -9.540275e+01
<MIXTURE> 2 4.942562e-01
<MEAN> 21
 -3.910487e-01 -4.877800e-01 2.629277e+00 -5.673437e-01 -5.639551e-01 2.851514e+00 1.403844e-01 -2.087467e-01 -2.842342e-01 -1.133201e-01 -2.537649e-01 -1.706132e-01 -2.997976e-01 1.257457e-01 -3.186537e-01 3.135571e-01 1.144722e-01 -1.757157e-01 -1.762949e-01 -7.617503e-02 2.222370e-01
<VARIANCE> 21
 3.640482e-03 1.242587e-03 8.250659e-02 6.238512e-03 2.152491e-03 8.768117e-02 1.000000e-03 1.000000e-03 1.000000e-03 1.000000e-03 1.000000e-03 1.000000e-03 1.209234e-03 1.000000e-03 1.206579e-03 1.275494e-03 1.621526e-03 1.692475e-03 2.541099e-03 2.181887e-03 2.407918e-03
<GCONST> -8.925195e+01
<STATE> 4
<NUMMIXES> 2
<MIXTURE> 1 5.485700e-01
<MEAN> 21
 -3.439219e-01 -4.193240e-01 2.916489e+00 -6.921445e-01 -4.809412e-01 2.943892e+00 1.287474e-01 -2.612713e-01 -2.474247e-01 -1.139576e-01 -2.792633e-01 -1.925581e-01 -1.962940e-01 2.478914e-01 -3.077498e-01 2.352666e-01 2.143163e-01 -2.885652e-01 -3.482226e-01 -6.161714e-02 2.740315e-02
<VARIANCE> 21
 2.058936e-03 1.508184e-03 2.008623e-02 4.066192e-03 1.050041e-03 1.503744e-02 1.000000e-03 1.000000e-03 1.653926e-03 1.000000e-03 1.000000e-03 1.000000e-03 1.000000e-03 1.430554e-03 1.728450e-03 3.754949e-03 1.102535e-03 2.154059e-03 4.576143e-03 1.000000e-03 4.223933e-03
<GCONST> -9.161414e+01
<MIXTURE> 2 4.514296e-01
<MEAN> 21
 -4.069176e-01 -4.707371e-01 2.766706e+00 -4.580971e-01 -4.822627e-01 2.803014e+00 1.340477e-01 -2.168448e-01 -2.709389e-01 -8.727869e-02 -2.462396e-01 -1.847657e-01 -2.707047e-01 1.398511e-01 -3.159038e-01 4.229568e-01 1.754626e-01 -3.176597e-01 -5.117949e-02 -1.152558e-02 3.630845e-02
<VARIANCE> 21
 2.470620e-03 1.389882e-03 3.826132e-02 4.967047e-03 1.703237e-03 3.724582e-02 1.000000e-03 1.000000e-03 1.019439e-03 2.147465e-03 1.000000e-03 1.000000e-03 1.000000e-03 1.450836e-03 1.630329e-03 6.176634e-03 1.640825e-03 4.267659e-03 6.554308e-03 1.000000e-03 5.061363e-03
<GCONST> -8.692316e+01
<STATE> 5
<MEAN> 21
 -3.171258e-01 -5.172302e-01 2.897825e+00 -7.514788e-01 -5.799567e-01 2.864360e+00 1.333570e-01 -3.176123e-01 -1.812902e-01 -1.191766e-01 -2.910531e-01 -1.883253e-01 -1.809240e-01 2.115294e-01 -3.534023e-01 1.785647e-01 1.339100e-01 -3.226966e-01 -4.343530e-01 -6.272648e-02 -3.346523e-02
<VARIANCE> 21
 3.908474e-03 1.366927e-03 5.482809e-02 2.896296e-03 1.382584e-03 4.260371e-02 1.000000e-03 1.000000e-03 1.078569e-03 1.000000e-03 1.000000e-03 1.588370e-03 1.749827e-03 1.392934e-03 1.443913e-03 2.406070e-03 1.833414e-03 3.109768e-03 2.363197e-03 1.000000e-03 2.951506e-03
<GCONST> -8.929052e+01
<TRANSP> 6
 0.000000e+00 1.000000e+00 0.000000e+00 0.000000e+00 0.000000e+00 0.000000e+00
 0.000000e+00 6.800361e-01 3.199639e-01 0.000000e+00 0.000000e+00 0.000000e+00
 0.000000e+00 0.000000e+00 7.936930e-01 2.063070e-01 0.000000e+00 0.000000e+00
 0.000000e+00 0.000000e+00 0.000000e+00 8.387306e-01 1.612694e-01 0.000000e+00
 0.000000e+00 0.000000e+00 0.000000e+00 0.000000e+00 8.726210e-01 1.273791e-01
 0.000000e+00 0.000000e+00 0.000000e+00 0.000000e+00 0.000000e+00 0.000000e+00
<ENDHMM>
~h "cat"
<BEGINHMM>
<NUMSTATES> 6
<STATE> 2
<NUMMIXES> 2
<MIXTURE> 1 6.889462e-01
<MEAN> 21
 -3.337343e-01 -2.348660e-01 3.314571e+00 -8.519888e-01 -9.561785e-01 3.082246e+00 1.883827e-01 -2.023968e-01 -1.835867e-01 -1.037935e-01 -3.083344e-01 -1.437717e-01 -2.107013e-01 4.032689e-01 -1.037157e-01 1.133364e-01 -2.023631e-01 -3.229487e-01 -5.182545e-01 -7.213125e-01 -2.323247e-01
<VARIANCE> 21
 3.605483e-03 1.000000e-03 1.323174e-02 2.767509e-03 1.000000e-03 1.621507e-02 1.000000e-03 1.000000e-03 1.000000e-03 1.000000e-03 1.000000e-03 1.000000e-03 3.433411e-03 1.000000e-03 1.957763e-03 3.388123e-03 1.000000e-03 1.000000e-03 6.516391e-03 1.075552e-03 2.601498e-03
<GCONST> -9.276961e+01
<MIXTURE> 2 3.110526e-01
<MEAN> 21
 -3.164021e-01 -2.991427e-01 3.114853e+00 -8.080198e-01 -9.345592e-01 2.960923e+00 1.680191e-01 -2.322258e-01 -1.862456e-01 -1.080849e-01 -3.107531e-01 -1.294930e-01 -2.259670e-01 3.644162e-01 -1.561842e-01 1.109193e-01 -1.766558e-01 -3.295532e-01 -4.916176e-01 -6.354164e-01 -1.539299e-01
<VARIANCE> 21
 4.012488e-03 2.303184e-03 4.164407e-02 4.924334e-03 1.000000e-03 3.742510e-02 1.000000e-03 1.000000e-03 1.000000e-03 1.000000e-03 1.000000e-03 1.000000e-03 1.676470e-03 1.177499e-03 3.873069e-03 2.951257e-03 1.000000e-03 1.925018e-03 4.513242e-03 2.575112e-03 4.276927e-03
<GCONST> -8.762061e+01
<STATE> 3
<NUMMIXES> 2
<MIXTURE> 1 6.364999e-01
<MEAN> 21
 -1.947754e-01 -3.036369e-01 2.773597e+00 -7.582101e-01 -9.187980e-01 2.652639e+00 1.856673e-01 -2.392963e-01 -1.733847e-01 -1.130334e-01 -3.173996e-01 -9.752102e-02 -1.741130e-01 3.768679e-01 -1.842044e-01 1.180838e-01 -1.428049e-01 -3.667404e-01 -5.634347e-01 -6.151612e-01 -1.209573e-01
<VARIANCE> 21
 8.908617e-03 2.082143e-03 6.729037e-02 2.925755e-03 1.000000e-03 5.329905e-02 1.000000e-03 1.316892e-03 1.071009e-03 1.000000e-03 1.000000e-03 1.374275e-03 6.856197e-03 1.019099e-03 5.233267e-03 2.081076e-03 1.294491e-03 3.578725e-03 8.498543e-03 2.892625e-03 6.433664e-03
<GCONST> -8.269801e+01
<MIXTURE> 2 3.635002e-01
<MEAN> 21
 -1.748167e-01 -3.015580e-01 2.673327e+00 -7.012382e-01 -9.575187e-01 2.549842e+00 1.309810e-01 -2.522539e-01 -1.972691e-01 -9.845456e-02 -3.250393e-01 -6.623618e-02 -2.168940e-01 3.592715e-01 -1.248958e-01 5.355516e-02 -2.051238e-01 -4.157600e-01 -5.264215e-01 -6.559607e-01 -1.234850e-01
<VARIANCE> 21
 7.465884e-03 1.213693e-02 1.964616e-02 1.471620e-03 1.413248e-03 1.284851e-02 3.529743e-03 1.760573e-03 1.000000e-03 1.000000e-03 1.000000e-03 1.000000e-03 3.162569e-03 7.407104e-03 8.865360e-03 1.000000e-03 1.000000e-03 1.000000e-03 9.922489e-03 1.347168e-02 8.978719e-03
<GCONST> -8.144440e+01
<STATE> 4
<NUMMIXES> 2
<MIXTURE> 1 4.024998e-01
<MEAN> 21
 -3.672925e-01 -3.336079e-01 3.078788e+00 -6.251780e-01 -8.138788e-01 2.871521e+00 1.904123e-01 -2.131973e-01 -1.827410e-01 -1.025115e-01 -2.863722e-01 -1.700166e-01 -2.780087e-01 3.106413e-01 -2.056450e-01 2.966486e-01 -9.161951e-02 -3.852408e-01 -2.578855e-01 -4.802708e-01 -2.072676e-01
<VARIANCE> 21
 3.268936e-03 1.525295e-03 2.778691e-02 4.331742e-03 2.840114e-03 1.976668e-02 1.000000e-03 1.040683e-03 1.000000e-03 1.000000e-03 1.000000e-03 1.767781e-03 1.000000e-03 1.000000e-03 1.000000e-03 3.127479e-03 2.509788e-03 3.080314e-03 4.687822e-03 5.453575e-03 2.899965e-03
<GCONST> -8.794142e+01
<MIXTURE> 2 5.975001e-01
<MEAN> 21
 -2.725421e-01 -4.315470e-01 2.848882e+00 -7.140815e-01 -8.556942e-01 2.698444e+00 1.712815e-01 -2.784691e-01 -1.666093e-01 -1.067177e-01 -2.994392e-01 -1.409056e-01 -2.007241e-01 2.699618e-01 -3.010298e-01 1.852757e-01 -1.124123e-01 -4.361930e-01 -4.415394e-01 -4.241471e-01 -1.504375e-01
<VARIANCE> 21
 8.048768e-03 3.059895e-03 1.238189e-01 6.443955e-03 3.377868e-03 9.782919e-02 1.000000e-03 1.000000e-03 1.293079e-03 1.000000e-03 1.000000e-03 1.242550e-03 2.637984e-03 2.888889e-03 3.695225e-03 3.239022e-03 2.975165e-03 4.554119e-03 6.241131e-03 6.103679e-03 1.196415e-02
<GCONST> -7.706542e+01
<STATE> 5
<MEAN> 21
 -3.399931e-01 -4.705285e-01 2.819675e+00 -5.845287e-01 -7.051476e-01 2.717181e+00 1.664501e-01 -2.614629e-01 -1.899966e-01 -1.071856e-01 -2.870833e-01 -1.868992e-01 -2.779329e-01 2.075156e-01 -2.789322e-01 3.007617e-01 1.911497e-02 -3.497545e-01 -2.445356e-01 -2.346191e-01 -1.024944e-01
<VARIANCE> 21
 7.092397e-03 6.538148e-03 1.188937e-01 6.018558e-03 2.267410e-03 9.924437e-02 1.000000e-03 1.151437e-03 1.131675e-03 1.000000e-03 1.000000e-03 1.855471e-03 2.425672e-03 4.268248e-03 6.836814e-03 3.708151e-03 1.834421e-03 4.534109e-03 6.012545e-03 8.710788e-03 7.455439e-03
<GCONST> -7.610274e+01
<TRANSP> 6
 0.000000e+00 1.000000e+00 0.000000e+00 0.000000e+00 0.000000e+00 0.000000e+00
 0.000000e+00 8.966430e-01 1.033571e-01 0.000000e+00 0.000000e+00 0.000000e+00
 0.000000e+00 0.000000e+00 8.502621e-01 1.497379e-01 0.000000e+00 0.000000e+00
 0.000000e+00 0.000000e+00 0.000000e+00 6.463636e-01 3.536364e-01 0.000000e+00
 0.000000e+00 0.000000e+00 0.000000e+00 0.000000e+00 5.128923e-01 4.871077e-01
 0.000000e+00 0.000000e+00 0.000000e+00 0.000000e+00 0.000000e+00 0.000000e+00
<ENDHMM>
~h "white"
<BEGINHMM>
<NUMSTATES> 6
<STATE> 2
<NUMMIXES> 2
<MIXTURE> 1 3.812697e-01
<MEAN> 21
 -3.741987e-01 -5.083031e-01 3.102043e+00 -7.554227e-01 -9.341079e-01 2.881955e+00 1.554733e-01 -2.719238e-01 -1.699528e-01 -1.190215e-01 -3.125683e-01 -1.412654e-01 -3.104895e-01 1.835822e-01 -1.279452e-01 1.441049e-01 -1.754691e-01 -3.490908e-01 -3.812240e-01 -4.258048e-01 -2.200882e-01
<VARIANCE> 21
 5.387467e-03 1.505978e-03 1.762451e-02 2.872698e-03 1.000000e-03 1.518122e-02 1.000000e-03 1.000000e-03 1.000000e-03 1.000000e-03 1.000000e-03 1.172199e-03 1.312141e-03 1.323715e-03 1.106561e-03 2.626405e-03 1.000000e-03 1.880498e-03 4.759034e-03 1.135154e-03 5.465871e-03
<GCONST> -9.193459e+01
<MIXTURE> 2 6.187294e-01
<MEAN> 21
 -4.332028e-01 -5.231351e-01 3.282010e+00 -8.241639e-01 -9.729955e-01 3.019551e+00 1.697600e-01 -2.752129e-01 -1.520741e-01 -1.140604e-01 -3.123716e-01 -1.449588e-01 -2.766716e-01 1.628487e-01 -1.601348e-01 1.736659e-01 -2.188318e-01 -3.397494e-01 -3.909612e-01 -4.498605e-01 -2.624591e-01
<VARIANCE> 21
 1.000000e-03 1.000000e-03 8.840922e-03 1.000000e-03 1.000000e-03 7.044572e-03 1.000000e-03 1.000000e-03 1.000000e-03 1.000000e-03 1.000000e-03 1.000000e-03 1.000000e-03 1.000000e-03 1.000000e-03 1.000000e-03 1.000000e-03 1.000000e-03 1.311258e-03 1.000000e-03 1.533362e-03
<GCONST> -1.016373e+02
<STATE> 3
<NUMMIXES> 2
<MIXTURE> 1 7.218933e-01
<MEAN> 21
 -4.322441e-01 -5.100585e-01 3.328666e+00 -8.936185e-01 -9.343901e-01 3.139707e+00 1.774561e-01 -2.692589e-01 -1.890367e-01 -9.661005e-02 -3.001260e-01 -1.571132e-01 -3.271928e-01 1.908753e-01 -1.237214e-01 5.288252e-02 -1.846281e-01 -3.016854e-01 -4.613744e-01 -4.243316e-01 -1.889596e-01
<VARIANCE> 21
 1.000000e-03 1.000000e-03 5.090523e-03 1.000000e-03 1.000000e-03 4.710337e-03 1.000000e-03 1.000000e-03 1.000000e-03 1.000000e-03 1.000000e-03 1.000000e-03 1.000000e-03 1.000000e-03 1.000000e-03 1.000000e-03 1.000000e-03 1.000000e-03 1.000000e-03 1.056386e-03 1.025819e-03
<GCONST> -1.032100e+02
<MIXTURE> 2 2.781063e-01
<MEAN> 21
 -3.457503e-01 -5.511006e-01 3.368284e+00 -8.436623e-01 -9.956150e-01 3.122190e+00 1.648473e-01 -2.805929e-01 -1.869369e-01 -1.224493e-01 -3.235896e-01 -1.490692e-01 -2.426948e-01 1.718462e-01 -1.253869e-01 1.430575e-01 -2.011802e-01 -3.717321e-01 -4.979120e-01 -4.445145e-01 -2.460940e-01
<VARIANCE> 21
 7.964219e-03 9.706828e-03 1.275049e-01 1.230774e-02 4.095465e-03 1.152536e-01 1.000000e-03 1.000000e-03 1.067743e-03 1.000000e-03 1.000000e-03 1.230590e-03 4.949619e-03 3.050524e-03 2.288919e-03 2.122378e-03 1.000000e-03 2.281672e-03 2.022319e-02 2.405558e-03 4.371637e-03
<GCONST> -7.785133e+01
<STATE> 4
<NUMMIXES> 2
<MIXTURE> 1 5.187311e-01
<MEAN> 21
 -4.026873e-01 -3.881043e-01 3.071482e+00 -7.751555e-01 -9.308732e-01 2.892592e+00 1.829902e-01 -2.675986e-01 -1.613834e-01 -1.167172e-01 -3.009110e-01 -1.306845e-01 -3.031073e-01 2.755566e-01 -1.783900e-01 1.683041e-01 -1.981403e-01 -3.256425e-01 -3.724683e-01 -5.427690e-01 -1.788901e-01
<VARIANCE> 21
 2.875754e-03 3.409809e-03 1.023587e-02 1.598835e-03 1.000000e-03 9.451440e-03 1.000000e-03 1.000000e-03 1.000000e-03 1.000000e-03 1.000000e-03 1.000000e-03 1.000000e-03 2.258891e-03 1.000000e-03 1.000000e-03 1.000000e-03 1.000000e-03 1.111129e-03 2.724187e-03 1.144307e-03
<GCONST> -9.708591e+01
<MIXTURE> 2 4.812696e-01
<MEAN> 21
 -4.449008e-01 -4.354240e-01 3.142787e+00 -7.874924e-01 -9.143164e-01 2.961952e+00 1.578237e-01 -2.668726e-01 -1.928810e-01 -9.179499e-02 -3.041058e-01 -1.506015e-01 -3.191332e-01 2.519563e-01 -2.175443e-01 1.498215e-01 -1.671857e-01 -3.874432e-01 -3.425916e-01 -4.788924e-01 -1.808355e-01
<VARIANCE> 21
 2.569868e-03 1.241641e-03 3.502123e-02 5.786680e-03 1.000000e-03 4.223322e-02 1.000000e-03 1.000000e-03 1.232604e-03 1.000000e-03 1.000000e-03 1.000000e-03 1.000000e-03 1.050578e-03 5.091601e-03 4.195051e-03 1.000000e-03 5.963831e-03 5.882811e-03 1.718885e-03 4.591299e-03
<GCONST> -8.730888e+01
<STATE> 5
<MEAN> 21
 -3.182260e-01 -4.606924e-01 2.834113e+00 -7.692513e-01 -9.204219e-01 2.680100e+00 1.596469e-01 -2.714841e-01 -1.926422e-01 -1.126896e-01 -3.158494e-01 -1.096796e-01 -2.830398e-01 2.342089e-01 -1.519578e-01 1.102607e-01 -1.534302e-01 -3.787501e-01 -4.510252e-01 -4.597295e-01 -1.540133e-01
<VARIANCE> 21
 5.676391e-03 9.852528e-03 1.186690e-01 5.638343e-03 3.567430e-03 9.511886e-02 1.000000e-03 1.000000e-03 1.000000e-03 1.000000e-03 1.000000e-03 2.762284e-03 3.142984e-03 5.700939e-03 3.832064e-03 3.714696e-03 2.947745e-03 5.995696e-03 8.782669e-03 1.104255e-02 1.061631e-02
<GCONST> -7.374393e+01
<TRANSP> 6
 0.000000e+00 1.000000e+00 0.000000e+00 0.000000e+00 0.000000e+00 0.000000e+00
 0.000000e+00 8.939489e-01 1.060510e-01 0.000000e+00 0.000000e+00 0.000000e+00
 0.000000e+00 0.000000e+00 8.179787e-01 1.820213e-01 0.000000e+00 0.000000e+00
 0.000000e+00 0.000000e+00 0.000000e+00 5.445051e-01 4.554949e-01 0.000000e+00
 0.000000e+00 0.000000e+00 0.000000e+00 0.000000e+00 6.834860e-01 3.165140e-01
 0.000000e+00 0.000000e+00 0.000000e+00 0.000000e+00 0.000000e+00 0.000000e+00
<ENDHMM>
~h "sil"
<BEGINHMM>
<NUMSTATES> 6
<STATE> 2
<NUMMIXES> 2
<MIXTURE> 1 4.179459e-01
<MEAN> 21
 -2.658462e-01 -5.964252e-01 2.711392e+00 -7.128454e-01 -6.698338e-01 2.673156e+00 1.435332e-01 -2.959514e-01 -1.808220e-01 -1.026377e-01 -2.923471e-01 -1.748732e-01 -1.749967e-01 1.086117e-01 -3.802404e-01 1.603831e-01 4.889108e-02 -3.795090e-01 -4.469992e-01 -7.340857e-02 -3.823655e-02
<VARIANCE> 21
 8.390466e-03 3.764483e-03 9.331591e-02 7.919210e-03 8.532006e-03 7.334734e-02 1.000000e-03 1.000000e-03 1.443162e-03 1.111190e-03 1.000000e-03 4.199390e-03 5.050990e-03 3.469985e-03 2.484919e-03 6.856233e-03 8.415160e-03 5.548064e-03 1.728195e-02 3.463452e-03 4.185736e-03
<GCONST> -7.299700e+01
<MIXTURE> 2 5.820543e-01
<MEAN> 21
 -2.812988e-01 -6.583065e-01 2.866360e+00 -7.921354e-01 -9.368211e-01 2.923953e+00 1.357227e-01 -2.998683e-01 -1.631423e-01 -1.063334e-01 -3.091628e-01 -1.274999e-01 -1.657298e-01 7.305656e-02 -4.012643e-01 1.255417e-01 -1.832488e-01 -3.319960e-01 -5.108366e-01 -2.785146e-01 5.759208e-02
<VARIANCE> 21
 7.767862e-03 1.352001e-02 6.293177e-02 5.580596e-03 1.000000e-03 5.410722e-02 1.026700e-03 1.074016e-03 2.190781e-03 1.000000e-03 1.000000e-03 1.243481e-03 3.308504e-03 1.352647e-02 5.441211e-03 4.375211e-03 1.131350e-03 2.301832e-03 8.439516e-03 1.340158e-02 7.703512e-03
<GCONST> -7.616286e+01
<STATE> 3
<NUMMIXES> 2
<MIXTURE> 1 4.339408e-01
<MEAN> 21
 -3.043060e-01 -6.408727e-01 2.807287e+00 -6.932574e-01 -7.583643e-01 2.750037e+00 1.406420e-01 -2.918068e-01 -1.729630e-01 -9.764162e-02 -2.867101e-01 -1.708586e-01 -1.902403e-01 6.584926e-02 -3.969190e-01 2.011538e-01 -4.184575e-02 -4.027329e-01 -3.889514e-01 -1.174916e-01 -5.725018e-02
<VARIANCE> 21
 9.869381e-03 2.221517e-03 6.333262e-02 8.319760e-03 9.337938e-03 5.468802e-02 1.000000e-03 1.000000e-03 2.215191e-03 1.047138e-03 1.000000e-03 3.392039e-03 7.011070e-03 1.694687e-03 3.455643e-03 6.176196e-03 7.850106e-03 6.430803e-03 2.103208e-02 5.463864e-03 3.593270e-03
<GCONST> -7.333363e+01
<MIXTURE> 2 5.660584e-01
<MEAN> 21
 -2.795729e-01 -6.061080e-01 2.860734e+00 -8.058739e-01 -9.409156e-01 2.932570e+00 1.451309e-01 -2.911915e-01 -1.708640e-01 -1.079218e-01 -3.106041e-01 -1.254972e-01 -1.731737e-01 1.128666e-01 -3.999003e-01 1.100580e-01 -1.865604e-01 -3.265516e-01 -5.263010e-01 -3.348075e-01 7.183515e-02
<VARIANCE> 21
 6.384434e-03 3.578401e-03 6.745805e-02 5.153603e-03 1.000000e-03 5.538030e-02 1.122327e-03 1.422977e-03 2.078644e-03 1.000000e-03 1.000000e-03 1.038213e-03 2.898966e-03 4.407571e-03 3.122288e-03 2.928783e-03 1.023967e-03 1.323401e-03 3.971646e-03 3.843270e-03 6.661839e-03
<GCONST> -8.254925e+01
<STATE> 4
<NUMMIXES> 2
<MIXTURE> 1 3.565057e-01
<MEAN> 21
 -3.049899e-01 -6.520391e-01 2.772275e+00 -6.720098e-01 -7.616769e-01 2.720567e+00 1.353533e-01 -2.914613e-01 -1.828288e-01 -8.882033e-02 -2.871901e-01 -1.795454e-01 -1.885676e-01 5.167681e-02 -3.968333e-01 2.072551e-01 -4.797900e-02 -3.984998e-01 -3.670200e-01 -1.096378e-01 -5.170747e-02
<VARIANCE> 21
 1.241405e-02 1.367241e-03 6.143599e-02 1.031219e-02 5.394123e-03 5.684650e-02 1.000000e-03 1.000000e-03 2.020613e-03 1.252464e-03 1.000000e-03 2.837655e-03 9.300165e-03 1.854360e-03 3.713115e-03 7.895716e-03 4.788380e-03 6.536089e-03 3.079703e-02 5.395069e-03 2.555443e-03
<GCONST> -7.376691e+01
<MIXTURE> 2 6.434936e-01
<MEAN> 21
 -2.353992e-01 -5.018346e-01 2.772310e+00 -7.664019e-01 -9.390717e-01 2.800453e+00 1.549643e-01 -2.801098e-01 -1.862890e-01 -1.053394e-01 -3.150121e-01 -1.020397e-01 -1.952197e-01 1.982620e-01 -3.130875e-01 9.270249e-02 -1.852058e-01 -3.506002e-01 -5.310026e-01 -4.372370e-01 2.814383e-02
<VARIANCE> 21
 9.597024e-03 2.189243e-02 7.656666e-02 5.999080e-03 1.054347e-03 6.717303e-02 1.227295e-03 2.470809e-03 1.840954e-03 1.000000e-03 1.000000e-03 1.868978e-03 4.834270e-03 1.455650e-02 1.370995e-02 2.555609e-03 1.000000e-03 2.482810e-03 5.229939e-03 2.337632e-02 1.249711e-02
<GCONST> -7.233366e+01
<STATE> 5
<MEAN> 21
 -2.887971e-01 -5.561449e-01 2.657496e+00 -6.283241e-01 -7.556651e-01 2.651068e+00 1.263756e-01 -2.803471e-01 -2.016900e-01 -1.021839e-01 -2.865811e-01 -1.646248e-01 -2.411833e-01 1.261091e-01 -3.108825e-01 1.921037e-01 -5.159193e-02 -3.383678e-01 -3.395270e-01 -1.995202e-01 -6.427274e-03
<VARIANCE> 21
 1.163800e-02 2.020074e-02 7.951527e-02 2.641909e-02 2.804036e-02 7.500154e-02 1.529775e-03 1.665661e-03 1.942975e-03 1.410266e-03 1.103716e-03 4.359229e-03 1.216924e-02 1.507088e-02 8.460672e-03 1.259005e-02 1.764667e-02 6.665104e-03 4.762586e-02 4.559504e-02 1.063946e-02
<GCONST> -5.749675e+01
<TRANSP> 6
 0.000000e+00 1.000000e+00 0.000000e+00 0.000000e+00 0.000000e+00 0.000000e+00
 0.000000e+00 2.086695e-01 7.913305e-01 0.000000e+00 0.000000e+00 0.000000e+00
 0.000000e+00 0.000000e+00 1.472929e-01 8.527071e-01 0.000000e+00 0.000000e+00
 0.000000e+00 0.000000e+00 0.000000e+00 2.893259e-01 7.106740e-01 0.000000e+00
 0.000000e+00 0.000000e+00 0.000000e+00 0.000000e+00 4.956008e-01 5.043992e-01
 0.000000e+00 0.000000e+00 0.000000e+00 0.000000e+00 0.000000e+00 0.000000e+00
<ENDHMM>
~h "alligator"
<BEGINHMM>
<NUMSTATES> 6
<STATE> 2
<NUMMIXES> 2
<MIXTURE> 1 7.183759e-01
<MEAN> 21
 -4.838709e-01 -6.395018e-01 2.861448e+00 -5.056922e-01 -6.534974e-01 2.851002e+00 8.400434e-02 -2.598212e-01 -2.435631e-01 1.816564e-03 -2.962041e-01 -2.163822e-01 -2.605111e-01 1.813395e-02 -3.741449e-01 3.194675e-01 6.358234e-02 -3.269090e-01 -2.182139e-02 -1.399558e-02 -1.044608e-02
<VARIANCE> 21
 1.000000e-03 1.255709e-03 6.435402e-03 1.000000e-03 1.558791e-03 5.979877e-03 1.035459e-03 1.000000e-03 2.489110e-03 1.000000e-03 1.000000e-03 2.802158e-03 1.000000e-03 1.269239e-03 3.424153e-03 1.381921e-03 1.859510e-03 3.290986e-03 1.000000e-03 1.000000e-03 1.000000e-03
<GCONST> -9.656421e+01
<MIXTURE> 2 2.816236e-01
<MEAN> 21
 -4.110223e-01 -5.309384e-01 2.735321e+00 -5.196115e-01 -7.138764e-01 2.654985e+00 1.123061e-01 -2.679961e-01 -2.242519e-01 -2.313452e-02 -3.028039e-01 -2.125762e-01 -2.845781e-01 1.400281e-01 -3.004529e-01 2.732361e-01 1.452334e-02 -3.417321e-01 -1.085892e-01 -1.829380e-01 -8.033586e-02
<VARIANCE> 21
 4.523057e-03 5.569895e-03 1.056720e-01 4.089165e-03 3.078204e-03 1.009740e-01 1.000000e-03 1.000000e-03 1.263526e-03 1.000000e-03 1.000000e-03 2.357853e-03 1.390705e-03 4.353509e-03 2.457369e-03 2.487698e-03 3.324003e-03 3.536014e-03 2.989654e-03 6.540244e-03 2.197178e-03
<GCONST> -8.050562e+01
<STATE> 3
<NUMMIXES> 2
<MIXTURE> 1 6.267800e-01
<MEAN> 21
 -3.853999e-01 -5.645913e-01 2.261676e+00 -4.045158e-01 -5.815449e-01 2.247587e+00 7.588557e-02 -2.240335e-01 -2.855075e-01 1.978902e-02 -2.812814e-01 -2.566022e-01 -2.916218e-01 3.974627e-02 -3.282494e-01 2.527999e-01 1.229219e-01 -3.285884e-01 -1.911594e-02 -1.695370e-02 -1.408863e-02
<VARIANCE> 21
 1.000000e-03 1.162454e-03 1.773532e-02 1.000000e-03 1.265995e-03 1.759962e-02 1.000000e-03 1.000000e-03 1.633788e-03 1.000000e-03 1.000000e-03 1.466487e-03 1.000000e-03 1.000000e-03 1.651012e-03 1.104075e-03 1.562640e-03 3.089686e-03 1.000000e-03 1.000000e-03 1.000000e-03
<GCONST> -9.728900e+01
<MIXTURE> 2 3.732191e-01
<MEAN> 21
 -4.202298e-01 -6.080745e-01 2.705968e+00 -4.546778e-01 -6.296127e-01 2.694966e+00 5.828618e-02 -2.316750e-01 -2.609590e-01 3.326645e-03 -2.783643e-01 -2.198097e-01 -2.497266e-01 2.317639e-02 -3.584155e-01 2.896968e-01 7.412165e-02 -3.611441e-01 -3.444802e-02 -2.153817e-02 -1.100163e-02
<VARIANCE> 21
 3.136761e-03 2.560716e-03 1.660522e-02 4.116585e-03 3.143687e-03 1.520301e-02 2.272145e-03 1.060976e-03 1.648731e-03 1.000000e-03 1.000000e-03 2.728388e-03 2.228049e-03 2.844324e-03 2.199681e-03 2.497457e-03 3.018993e-03 4.817913e-03 5.673522e-03 2.859729e-03 1.327387e-03
<GCONST> -8.461165e+01
<STATE> 4
<NUMMIXES> 2
<MIXTURE> 1 4.371901e-01
<MEAN> 21
 -3.123689e-01 -5.149168e-01 2.528124e+00 -5.354876e-01 -5.769362e-01 2.506915e+00 1.117708e-01 -2.696487e-01 -2.093510e-01 -6.876604e-02 -2.845451e-01 -2.006231e-01 -2.836545e-01 1.398634e-01 -3.002843e-01 2.062884e-01 1.095333e-01 -3.220929e-01 -2.231187e-01 -6.201942e-02 -2.120881e-02
<VARIANCE> 21
 1.209577e-02 1.337504e-02 4.983057e-02 1.154575e-02 2.589900e-02 4.264116e-02 1.016446e-03 1.062565e-03 2.087885e-03 2.730232e-03 1.034611e-03 4.812995e-03 4.114695e-03 9.079207e-03 7.874574e-03 1.516123e-02 1.874247e-02 7.888897e-03 3.697067e-02 7.215633e-03 4.915015e-03
<GCONST> -6.401849e+01
<MIXTURE> 2 5.628097e-01
<MEAN> 21
 -3.549252e-01 -5.651587e-01 2.397580e+00 -4.101225e-01 -6.213117e-01 2.311493e+00 7.108260e-02 -2.668648e-01 -2.295236e-01 -4.060696e-02 -2.730770e-01 -2.127536e-01 -3.358962e-01 7.022168e-02 -2.732542e-01 2.447456e-01 5.005302e-02 -3.772260e-01 -5.519733e-02 -5.615306e-02 -8.608712e-02
<VARIANCE> 21
 1.499782e-03 2.507040e-03 1.403498e-02 3.203264e-03 2.638679e-03 5.267290e-03 1.000000e-03 1.000000e-03 2.932686e-03 1.185366e-03 1.000000e-03 2.900212e-03 1.206905e-03 4.056935e-03 1.906707e-03 3.098339e-03 1.915855e-03 3.897018e-03 3.161191e-03 3.185506e-03 9.823637e-03
<GCONST> -8.642530e+01
<STATE> 5
<MEAN> 21
 -4.170045e-01 -4.819847e-01 2.844724e+00 -5.197395e-01 -6.693950e-01 2.755312e+00 1.281416e-01 -2.484725e-01 -2.314094e-01 -3.205911e-02 -2.749708e-01 -2.210613e-01 -2.666482e-01 1.623412e-01 -3.225584e-01 3.120140e-01 2.982249e-02 -3.494584e-01 -1.027350e-01 -1.874103e-01 -8.941197e-02
<VARIANCE> 21
 2.918355e-03 6.660707e-03 5.735406e-02 4.341478e-03 3.812310e-03 5.454779e-02 1.000000e-03 1.000000e-03 1.625231e-03 1.000000e-03 1.000000e-03 3.417486e-03 1.570755e-03 4.427199e-03 3.679989e-03 3.433459e-03 2.229369e-03 4.945454e-03 5.362676e-03 1.144110e-02 3.316062e-03
<GCONST> -7.873943e+01
<TRANSP> 6
 0.000000e+00 1.000000e+00 0.000000e+00 0.000000e+00 0.000000e+00 0.000000e+00
 0.000000e+00 8.842534e-01 1.157466e-01 0.000000e+00 0.000000e+00 0.000000e+00
 0.000000e+00 0.000000e+00 8.697960e-01 1.302040e-01 0.000000e+00 0.000000e+00
 0.000000e+00 0.000000e+00 0.000000e+00 8.477954e-01 1.522046e-01 0.000000e+00
 0.000000e+00 0.000000e+00 0.000000e+00 0.000000e+00 5.529824e-01 4.470176e-01
 0.000000e+00 0.000000e+00 0.000000e+00 0.000000e+00 0.000000e+00 0.000000e+00
<ENDHMM>
~h "green"
<BEGINHMM>
<NUMSTATES> 6
<STATE> 2
<NUMMIXES> 2
<MIXTURE> 1 4.686002e-01
<MEAN> 21
 -2.179264e-01 -3.065304e-01 2.687282e+00 -5.979987e-01 -7.928734e-01 2.498563e+00 1.751173e-01 -2.418746e-01 -1.771286e-01 -1.341111e-01 -2.788269e-01 -1.805655e-01 -2.224134e-01 3.476527e-01 -1.628587e-01 2.342109e-01 -9.534457e-02 -3.442605e-01 -3.800723e-01 -4.863431e-01 -1.887186e-01
<VARIANCE> 21
 5.030802e-03 3.720665e-03 5.456690e-02 2.232923e-03 3.508787e-03 4.848151e-02 1.051746e-03 2.482195e-03 1.000000e-03 1.000000e-03 1.000000e-03 1.867772e-03 1.028838e-03 2.480824e-03 1.347024e-03 3.458101e-03 2.555155e-03 1.461057e-03 5.860534e-03 1.014558e-02 3.899090e-03
<GCONST> -8.277548e+01
<MIXTURE> 2 5.313993e-01
<MEAN> 21
 -3.122796e-01 -3.165020e-01 3.128918e+00 -7.533595e-01 -8.870722e-01 2.883787e+00 1.853767e-01 -2.373121e-01 -1.803225e-01 -1.069712e-01 -2.881836e-01 -1.754145e-01 -1.983905e-01 3.516991e-01 -1.829857e-01 1.868839e-01 -1.707253e-01 -3.853484e-01 -4.410798e-01 -5.705702e-01 -2.451307e-01
<VARIANCE> 21
 1.091552e-03 2.212378e-03 1.141605e-02 5.337627e-03 1.835164e-03 1.391079e-02 1.000000e-03 1.593367e-03 1.000000e-03 1.000000e-03 1.000000e-03 2.398355e-03 1.000000e-03 1.574308e-03 3.029481e-03 6.775577e-03 1.237057e-03 4.158614e-03 8.264024e-03 2.872744e-03 1.486243e-02
<GCONST> -8.591608e+01
<STATE> 3
<NUMMIXES> 2
<MIXTURE> 1 7.302603e-01
<MEAN> 21
 -2.197636e-01 -2.810061e-01 2.864329e+00 -7.403920e-01 -9.168020e-01 2.713921e+00 1.974279e-01 -2.074449e-01 -1.813627e-01 -1.336066e-01 -3.086296e-01 -1.300352e-01 -2.062930e-01 3.816887e-01 -1.530709e-01 1.417237e-01 -1.632068e-01 -3.576393e-01 -5.206284e-01 -6.357960e-01 -1.504083e-01
<VARIANCE> 21
 2.446400e-03 1.947828e-03 5.959746e-02 2.337925e-03 1.252551e-03 5.621113e-02 1.000000e-03 1.282158e-03 1.000000e-03 1.000000e-03 1.000000e-03 2.047922e-03 1.000000e-03 1.000000e-03 1.726218e-03 1.678993e-03 1.000000e-03 2.611591e-03 3.642729e-03 4.320432e-03 8.014942e-03
<GCONST> -8.788808e+01
<MIXTURE> 2 2.697400e-01
<MEAN> 21
 -1.596953e-01 -2.926252e-01 2.541101e+00 -6.937351e-01 -9.205129e-01 2.474450e+00 1.746146e-01 -2.546123e-01 -2.004445e-01 -1.146359e-01 -3.091457e-01 -6.059685e-02 -2.292681e-01 3.709503e-01 -1.610623e-01 7.878216e-02 -1.919381e-01 -3.916412e-01 -5.340398e-01 -6.278877e-01 -6.665123e-02
<VARIANCE> 21
 1.910356e-03 1.149700e-03 3.117411e-03 1.366906e-03 1.000000e-03 7.031409e-03 1.029472e-03 1.001267e-03 1.000000e-03 1.000000e-03 1.000000e-03 1.000000e-03 1.061960e-03 1.000000e-03 1.437608e-03 1.000000e-03 1.000000e-03 1.000000e-03 1.550788e-03 2.059736e-03 2.491221e-03
<GCONST> -9.975318e+01
<STATE> 4
<NUMMIXES> 2
<MIXTURE> 1 7.811697e-01
<MEAN> 21
 -3.150469e-01 -2.629157e-01 3.212328e+00 -8.403552e-01 -9.455508e-01 3.028346e+00 2.216529e-01 -1.781553e-01 -1.720709e-01 -1.198394e-01 -3.028091e-01 -1.422423e-01 -2.171281e-01 3.800979e-01 -1.512283e-01 1.312379e-01 -2.064303e-01 -3.347774e-01 -5.253083e-01 -6.826351e-01 -1.839823e-01
<VARIANCE> 21
 1.000000e-03 1.000000e-03 1.056711e-02 2.980617e-03 1.000000e-03 1.756920e-02 1.000000e-03 1.000000e-03 1.000000e-03 1.000000e-03 1.000000e-03 1.000000e-03 1.000000e-03 1.000000e-03 1.635190e-03 3.548378e-03 1.000000e-03 1.339655e-03 3.754349e-03 1.426328e-03 4.139830e-03
<GCONST> -9.500208e+01
<MIXTURE> 2 2.188294e-01
<MEAN> 21
 -3.232177e-01 -3.351936e-01 3.028909e+00 -7.821935e-01 -8.981825e-01 2.909257e+00 1.920187e-01 -2.134647e-01 -1.910615e-01 -1.212745e-01 -3.003090e-01 -1.427918e-01 -2.296063e-01 3.272572e-01 -2.275008e-01 1.627500e-01 -1.617439e-01 -3.635747e-01 -4.589757e-01 -5.629889e-01 -1.196522e-01
<VARIANCE> 21
 3.966649e-03 1.363744e-03 4.129225e-02 7.042530e-03 2.951113e-03 4.588510e-02 1.149331e-03 1.178708e-03 1.000000e-03 1.000000e-03 1.000000e-03 1.046824e-03 1.615306e-03 1.913901e-03 2.123966e-03 5.179434e-03 2.479266e-03 4.047676e-03 7.929556e-03 5.497928e-03 5.428655e-03
<GCONST> -8.254955e+01
<STATE> 5
<MEAN> 21
 -3.757065e-01 -4.273762e-01 3.051542e+00 -7.176775e-01 -7.587825e-01 2.948579e+00 1.545924e-01 -2.369889e-01 -1.986616e-01 -1.195000e-01 -2.847699e-01 -1.636941e-01 -2.396830e-01 2.450462e-01 -2.523987e-01 2.348434e-01 -4.174947e-02 -3.437285e-01 -3.419710e-01 -3.314063e-01 -1.029633e-01
<VARIANCE> 21
 9.498415e-03 2.030429e-02 2.844516e-02 9.246497e-03 2.698028e-02 3.187495e-02 1.000000e-03 1.504218e-03 1.062172e-03 1.000000e-03 1.000000e-03 2.093736e-03 7.368428e-03 1.748336e-02 7.725948e-03 9.531463e-03 2.123081e-02 7.363040e-03 2.921056e-02 7.777267e-02 9.096853e-03
<GCONST> -6.352298e+01
<TRANSP> 6
 0.000000e+00 1.000000e+00 0.000000e+00 0.000000e+00 0.000000e+00 0.000000e+00
 0.000000e+00 5.396779e-01 4.603221e-01 0.000000e+00 0.000000e+00 0.000000e+00
 0.000000e+00 0.000000e+00 8.249038e-01 1.750962e-01 0.000000e+00 0.000000e+00
 0.000000e+00 0.000000e+00 0.000000e+00 8.988090e-01 1.011910e-01 0.000000e+00
 0.000000e+00 0.000000e+00 0.000000e+00 0.000000e+00 7.513925e-01 2.486074e-01
 0.000000e+00 0.000000e+00 0.000000e+00 0.000000e+00 0.000000e+00 0.000000e+00
<ENDHMM>
~h "chair"
<BEGINHMM>
<NUMSTATES> 6
<STATE> 2
<NUMMIXES> 2
<MIXTURE> 1 5.311107e-01
<MEAN> 21
 -3.861648e-01 -4.343408e-01 2.869166e+00 -6.121370e-01 -6.200715e-01 2.766947e+00 1.492293e-01 -2.594833e-01 -1.998471e-01 -1.401357e-01 -2.845659e-01 -2.036847e-01 -3.043782e-01 2.414855e-01 -2.290670e-01 3.044196e-01 9.227178e-02 -2.899767e-01 -2.259722e-01 -1.857307e-01 -1.022190e-01
<VARIANCE> 21
 2.652725e-03 1.243244e-03 6.344970e-02 2.283861e-03 2.409207e-03 6.238645e-02 1.000000e-03 1.000000e-03 1.000000e-03 1.000000e-03 1.000000e-03 1.290142e-03 1.297998e-03 1.309399e-03 1.981384e-03 1.097647e-03 1.994761e-03 1.584944e-03 1.589472e-03 2.020294e-03 1.024236e-03
<GCONST> -9.138160e+01
<MIXTURE> 2 4.688891e-01
<MEAN> 21
 -4.222797e-01 -4.246435e-01 3.103123e+00 -6.787542e-01 -7.257927e-01 2.934386e+00 1.385057e-01 -2.460539e-01 -2.129782e-01 -1.212343e-01 -2.904957e-01 -1.738029e-01 -2.932588e-01 2.550097e-01 -2.182895e-01 2.700367e-01 4.530847e-03 -3.883453e-01 -2.564744e-01 -3.011492e-01 -1.687362e-01
<VARIANCE> 21
 2.119855e-03 3.505657e-03 1.176979e-02 1.455377e-03 1.677840e-03 1.188621e-02 1.109146e-03 1.000000e-03 1.000000e-03 1.000000e-03 1.000000e-03 2.752206e-03 1.088356e-03 2.458642e-03 1.534498e-03 1.517664e-03 1.250679e-03 3.785191e-03 1.318998e-03 6.656548e-03 1.512568e-03
<GCONST> -9.154132e+01
<STATE> 3
<NUMMIXES> 2
<MIXTURE> 1 4.760136e-01
<MEAN> 21
 -3.895528e-01 -5.368754e-01 2.614734e+00 -4.636412e-01 -5.350695e-01 2.596121e+00 1.140593e-01 -2.486337e-01 -2.016111e-01 -1.279747e-01 -2.651434e-01 -1.999602e-01 -3.656707e-01 1.138163e-01 -2.251885e-01 3.440616e-01 1.419405e-01 -2.567626e-01 -7.408836e-02 1.805829e-03 -1.861299e-02
<VARIANCE> 21
 2.522935e-03 1.628805e-03 2.486658e-02 3.089915e-03 2.092269e-03 2.512597e-02 1.237383e-03 1.000000e-03 1.000000e-03 1.135671e-03 1.000000e-03 2.471105e-03 1.000000e-03 1.273693e-03 1.019696e-03 1.899973e-03 1.475289e-03 2.407782e-03 3.245859e-03 2.913118e-03 1.000000e-03
<GCONST> -9.108804e+01
<MIXTURE> 2 5.239857e-01
<MEAN> 21
 -4.108492e-01 -5.148280e-01 2.782973e+00 -5.873181e-01 -5.934395e-01 2.726557e+00 1.452419e-01 -2.519765e-01 -2.004504e-01 -1.492182e-01 -2.698850e-01 -1.919008e-01 -3.565034e-01 1.521725e-01 -2.376991e-01 3.097108e-01 1.050529e-01 -2.868808e-01 -1.764689e-01 -7.861146e-02 -5.641530e-02
<VARIANCE> 21
 2.924509e-03 1.577299e-03 6.954273e-02 3.369693e-03 1.633364e-03 6.325319e-02 1.000000e-03 1.000000e-03 1.000000e-03 1.000000e-03 1.000000e-03 1.164757e-03 1.829778e-03 1.629113e-03 1.231650e-03 1.092775e-03 1.307758e-03 1.418663e-03 1.863610e-03 2.147459e-03 1.613632e-03
<GCONST> -9.081892e+01
<STATE> 4
<NUMMIXES> 2
<MIXTURE> 1 8.679320e-01
<MEAN> 21
 -4.900425e-01 -5.304508e-01 3.076155e+00 -6.489220e-01 -5.850242e-01 3.031560e+00 1.405754e-01 -2.489468e-01 -2.057201e-01 -1.457783e-01 -2.803282e-01 -1.898393e-01 -3.456549e-01 1.384727e-01 -2.613522e-01 3.313397e-01 1.239016e-01 -2.725459e-01 -1.588795e-01 -5.457341e-02 -4.459520e-02
<VARIANCE> 21
 1.075363e-03 1.002537e-03 7.450439e-03 1.524138e-03 1.191031e-03 5.611660e-03 1.000000e-03 1.000000e-03 1.000000e-03 1.000000e-03 1.000000e-03 1.000000e-03 1.097635e-03 1.000000e-03 1.200372e-03 1.000000e-03 1.000000e-03 1.459833e-03 2.175395e-03 1.510672e-03 1.000000e-03
<GCONST> -1.002190e+02
<MIXTURE> 2 1.320677e-01
<MEAN> 21
 -3.818084e-01 -5.774889e-01 2.574104e+00 -5.554664e-01 -6.237469e-01 2.539523e+00 1.310955e-01 -2.602961e-01 -1.857796e-01 -1.464271e-01 -2.652353e-01 -1.548887e-01 -3.648157e-01 9.986441e-02 -2.573379e-01 2.925577e-01 7.139064e-02 -3.264041e-01 -1.736581e-01 -4.625795e-02 -3.458159e-02
<VARIANCE> 21
 1.000000e-03 1.000000e-03 2.526578e-02 2.879165e-03 1.000000e-03 2.630459e-02 1.000000e-03 1.000000e-03 1.000000e-03 1.000000e-03 1.000000e-03 1.931671e-03 1.000000e-03 1.000000e-03 1.337483e-03 2.108224e-03 1.000000e-03 2.077789e-03 2.901310e-03 1.305774e-03 1.000000e-03
<GCONST> -9.515247e+01
<STATE> 5
<MEAN> 21
 -4.751164e-01 -5.786890e-01 3.008595e+00 -6.379167e-01 -6.478065e-01 2.953745e+00 1.396359e-01 -2.663898e-01 -1.908774e-01 -1.241417e-01 -2.778740e-01 -1.841678e-01 -3.254985e-01 1.062988e-01 -3.192402e-01 3.234129e-01 6.073657e-02 -3.161695e-01 -1.628002e-01 -6.911749e-02 -5.484992e-02
<VARIANCE> 21
 3.088035e-03 1.000000e-03 2.028337e-02 4.292938e-03 1.769792e-03 2.085771e-02 1.000000e-03 1.000000e-03 1.000000e-03 1.000000e-03 1.000000e-03 2.019441e-03 1.605675e-03 1.181936e-03 1.390662e-03 3.801759e-03 1.569616e-03 3.275811e-03 9.302204e-03 2.826055e-03 1.572675e-03
<GCONST> -8.889648e+01
<TRANSP> 6
 0.000000e+00 1.000000e+00 0.000000e+00 0.000000e+00 0.000000e+00 0.000000e+00
 0.000000e+00 6.728056e-01 3.271943e-01 0.000000e+00 0.000000e+00 0.000000e+00
 0.000000e+00 0.000000e+00 7.969843e-01 2.030158e-01 0.000000e+00 0.000000e+00
 0.000000e+00 0.000000e+00 0.000000e+00 8.572089e-01 1.427911e-01 0.000000e+00
 0.000000e+00 0.000000e+00 0.000000e+00 0.000000e+00 7.617852e-01 2.382148e-01
 0.000000e+00 0.000000e+00 0.000000e+00 0.000000e+00 0.000000e+00 0.000000e+00
<ENDHMM>
~h "wagon"
<BEGINHMM>
<NUMSTATES> 6
<STATE> 2
<NUMMIXES> 2
<MIXTURE> 1 3.260338e-01
<MEAN> 21
 -1.416825e-01 -4.607358e-01 2.667526e+00 -7.485883e-01 -9.076642e-01 2.695763e+00 1.142882e-01 -3.119462e-01 -1.898282e-01 -1.113402e-01 -3.035786e-01 -1.258928e-01 -3.858085e-02 2.661856e-01 -3.390663e-01 1.174330e-01 -1.702487e-01 -3.536995e-01 -6.069058e-01 -4.469284e-01 2.823712e-02
<VARIANCE> 21
 6.115922e-03 7.927898e-03 9.258839e-02 5.233303e-03 2.238399e-03 7.121597e-02 1.217220e-03 1.000000e-03 1.470807e-03 1.000000e-03 1.000000e-03 2.341825e-03 6.115349e-03 8.483707e-03 5.698450e-03 2.638733e-03 1.282823e-03 4.419886e-03 6.231789e-03 1.234471e-02 1.112875e-02
<GCONST> -7.475112e+01
<MIXTURE> 2 6.739648e-01
<MEAN> 21
 -1.972956e-01 -5.549489e-01 2.332492e+00 -7.160859e-01 -9.462171e-01 2.440269e+00 8.476225e-02 -3.361848e-01 -2.029299e-01 -9.818886e-02 -3.150141e-01 -7.199116e-02 -1.476200e-01 1.937956e-01 -3.579186e-01 6.996424e-02 -1.988058e-01 -3.947416e-01 -5.187903e-01 -3.912682e-01 1.077770e-01
<VARIANCE> 21
 9.532250e-03 1.565052e-03 5.502700e-03 1.000000e-03 1.000000e-03 7.543895e-03 1.000000e-03 1.000000e-03 1.000000e-03 1.000000e-03 1.000000e-03 1.000000e-03 7.348172e-03 2.564561e-03 1.000000e-03 1.704131e-03 1.000000e-03 1.341322e-03 9.446464e-03 1.811914e-03 2.441922e-03
<GCONST> -9.254311e+01
<STATE> 3
<NUMMIXES> 2
<MIXTURE> 1 4.968079e-01
<MEAN> 21
 -2.240908e-01 -4.601560e-01 3.038427e+00 -8.659334e-01 -9.373809e-01 3.093863e+00 9.143893e-02 -3.202795e-01 -2.284394e-01 -1.042911e-01 -3.048265e-01 -1.499991e-01 -1.207662e-02 2.866020e-01 -3.294549e-01 8.458648e-02 -1.902836e-01 -3.021076e-01 -6.418425e-01 -4.772249e-01 5.543586e-02
<VARIANCE> 21
 7.250356e-03 1.514317e-03 8.453605e-03 2.541099e-03 1.000000e-03 8.962643e-03 1.000000e-03 1.000000e-03 1.000000e-03 1.000000e-03 1.000000e-03 1.000000e-03 6.059841e-03 1.283784e-03 1.446699e-03 2.285935e-03 1.000000e-03 1.000000e-03 8.060077e-03 2.001747e-03 3.108455e-03
<GCONST> -9.164854e+01
<MIXTURE> 2 5.031918e-01
<MEAN> 21
 -2.822711e-01 -5.071987e-01 2.888578e+00 -7.890390e-01 -9.479460e-01 2.906885e+00 9.925459e-02 -3.250666e-01 -1.999343e-01 -1.041456e-01 -3.015833e-01 -1.384762e-01 -7.976446e-02 2.246821e-01 -3.634761e-01 1.501421e-01 -2.191995e-01 -3.353929e-01 -5.067679e-01 -4.407473e-01 1.830626e-02
<VARIANCE> 21
 4.975969e-03 1.292215e-03 3.205757e-02 1.354057e-03 1.000000e-03 2.057214e-02 1.000000e-03 1.000000e-03 1.000000e-03 1.000000e-03 1.000000e-03 1.000000e-03 4.717295e-03 1.470225e-03 1.000000e-03 1.294987e-03 1.000000e-03 1.659301e-03 4.048719e-03 1.818847e-03 5.506254e-03
<GCONST> -9.140786e+01
<STATE> 4
<NUMMIXES> 2
<MIXTURE> 1 6.249454e-01
<MEAN> 21
 -2.824253e-01 -5.518247e-01 2.859397e+00 -8.170763e-01 -9.231390e-01 2.992110e+00 7.825722e-02 -3.317095e-01 -2.224520e-01 -1.064412e-01 -3.105812e-01 -1.425794e-01 -1.247434e-01 2.080005e-01 -3.708158e-01 7.829874e-02 -1.698357e-01 -2.961791e-01 -5.346510e-01 -3.713143e-01 1.327128e-01
<VARIANCE> 21
 6.953388e-03 1.160079e-03 4.858408e-02 7.293858e-03 1.000000e-03 3.949602e-02 1.000000e-03 1.000000e-03 1.000000e-03 1.000000e-03 1.000000e-03 1.000000e-03 5.314907e-03 1.251930e-03 1.308576e-03 1.176364e-03 1.000000e-03 1.000000e-03 1.091749e-02 1.083093e-03 1.909696e-03
<GCONST> -8.938950e+01
<MIXTURE> 2 3.750530e-01
<MEAN> 21
 -3.482163e-01 -5.667781e-01 2.977161e+00 -8.412063e-01 -9.514310e-01 3.025004e+00 1.050875e-01 -3.135327e-01 -1.802823e-01 -1.002733e-01 -3.030745e-01 -1.461857e-01 -1.382034e-01 1.636374e-01 -4.088117e-01 1.179451e-01 -2.108814e-01 -3.234434e-01 -4.929899e-01 -3.846530e-01 4.784299e-02
<VARIANCE> 21
 2.401103e-03 1.000000e-03 5.032588e-03 1.588379e-03 1.000000e-03 7.405092e-03 1.000000e-03 1.000000e-03 1.000000e-03 1.000000e-03 1.000000e-03 1.000000e-03 1.921005e-03 1.000000e-03 1.000000e-03 2.697368e-03 1.000000e-03 1.000000e-03 4.384535e-03 1.046611e-03 2.224296e-03
<GCONST> -9.754249e+01
<STATE> 5
<MEAN> 21
 -2.459100e-01 -5.442000e-01 2.487289e+00 -6.353874e-01 -8.501818e-01 2.471878e+00 7.499985e-02 -3.021708e-01 -1.984707e-01 -8.356569e-02 -3.035698e-01 -1.324740e-01 -2.088836e-01 1.549380e-01 -2.857424e-01 1.099387e-01 -1.304674e-01 -3.764768e-01 -3.894773e-01 -3.059818e-01 -1.541126e-02
<VARIANCE> 21
 9.645479e-03 3.649531e-02 4.033044e-02 2.231183e-02 2.030689e-02 4.337414e-02 1.648557e-03 1.162820e-03 1.921683e-03 1.247169e-03 1.000000e-03 4.680397e-03 9.515625e-03 3.109356e-02 1.003558e-02 7.451090e-03 1.280891e-02 2.832895e-03 4.690511e-02 5.526690e-02 2.089964e-02
<GCONST> -5.945660e+01
<TRANSP> 6
 0.000000e+00 1.000000e+00 0.000000e+00 0.000000e+00 0.000000e+00 0.000000e+00
 0.000000e+00 8.920629e-01 1.079371e-01 0.000000e+00 0.000000e+00 0.000000e+00
 0.000000e+00 0.000000e+00 8.738976e-01 1.261024e-01 0.000000e+00 0.000000e+00
 0.000000e+00 0.000000e+00 0.000000e+00 8.640401e-01 1.359599e-01 0.000000e+00
 0.000000e+00 0.000000e+00 0.000000e+00 0.000000e+00 8.697035e-01 1.302965e-01
 0.000000e+00 0.000000e+00 0.000000e+00 0.000000e+00 0.000000e+00 0.000000e+00
<ENDHMM>
~h "wall"
<BEGINHMM>
<NUMSTATES> 6
<STATE> 2
<NUMMIXES> 2
<MIXTURE> 1 5.407159e-01
<MEAN> 21
 -4.515209e-01 -4.023349e-01 3.047095e+00 -6.418785e-01 -4.808920e-01 2.995482e+00 1.353083e-01 -2.452909e-01 -2.205873e-01 -9.011695e-02 -2.691093e-01 -2.267791e-01 -2.914732e-01 2.540867e-01 -2.423400e-01 2.808950e-01 2.058749e-01 -2.227466e-01 -1.903576e-01 -7.855713e-02 -5.161280e-02
<VARIANCE> 21
 1.000000e-03 1.946908e-03 6.388906e-03 1.000000e-03 2.429428e-03 7.079012e-03 1.000000e-03 1.000000e-03 1.000000e-03 1.387309e-03 1.000000e-03 1.426564e-03 1.000000e-03 1.205130e-03 1.957390e-03 1.179531e-03 1.742315e-03 1.709329e-03 1.000000e-03 1.282787e-03 2.258216e-03
<GCONST> -9.724097e+01
<MIXTURE> 2 4.592839e-01
<MEAN> 21
 -3.735456e-01 -3.728852e-01 2.867484e+00 -6.419254e-01 -5.996704e-01 2.757625e+00 1.439756e-01 -2.385614e-01 -2.095504e-01 -1.163842e-01 -2.903020e-01 -1.929941e-01 -2.843072e-01 2.848540e-01 -2.130849e-01 2.506321e-01 1.178711e-01 -3.073060e-01 -2.683798e-01 -2.267853e-01 -1.098583e-01
<VARIANCE> 21
 3.833855e-03 2.143817e-03 7.675501e-02 4.530312e-03 6.163235e-03 6.584939e-02 1.295584e-03 1.187659e-03 1.000000e-03 1.000000e-03 1.000000e-03 2.353837e-03 1.312137e-03 1.167411e-03 2.203179e-03 2.191163e-03 4.431682e-03 3.726689e-03 2.959083e-03 6.047883e-03 3.606137e-03
<GCONST> -8.224431e+01
<STATE> 3
<NUMMIXES> 2
<MIXTURE> 1 3.678183e-01
<MEAN> 21
 -4.061667e-01 -3.626285e-01 2.554024e+00 -4.664080e-01 -3.724158e-01 2.552681e+00 7.455759e-02 -1.973829e-01 -2.536185e-01 -6.103692e-02 -2.336158e-01 -2.675928e-01 -3.273520e-01 2.356948e-01 -2.005807e-01 2.864117e-01 2.610950e-01 -1.853646e-01 -6.024129e-02 -9.787266e-03 -1.342678e-03
<VARIANCE> 21
 7.125943e-03 2.505717e-03 5.823616e-02 6.167443e-03 2.901941e-03 5.924596e-02 3.967967e-03 2.722308e-03 1.773990e-03 1.775558e-03 1.513264e-03 2.305829e-03 3.182742e-03 2.169312e-03 1.601499e-03 5.277223e-03 1.527150e-03 1.313520e-03 9.333524e-03 1.740781e-03 1.000000e-03
<GCONST> -8.022691e+01
<MIXTURE> 2 6.321816e-01
<MEAN> 21
 -4.770713e-01 -4.129785e-01 2.993714e+00 -5.858694e-01 -4.131126e-01 2.983226e+00 1.235532e-01 -2.365914e-01 -2.191898e-01 -6.786994e-02 -2.536819e-01 -2.381498e-01 -3.094689e-01 2.302735e-01 -2.603290e-01 3.118251e-01 2.530720e-01 -1.919900e-01 -1.087982e-01 -1.340421e-04 -1.048804e-02
<VARIANCE> 21
 3.731338e-03 1.644157e-03 1.418385e-02 5.417720e-03 1.637331e-03 1.337777e-02 1.000000e-03 1.000000e-03 1.000000e-03 1.000000e-03 1.000000e-03 1.418428e-03 3.072384e-03 1.119757e-03 1.712136e-03 3.778831e-03 1.204645e-03 1.238585e-03 1.070935e-02 1.000000e-03 1.000000e-03
<GCONST> -9.100146e+01
<STATE> 4
<NUMMIXES> 2
<MIXTURE> 1 3.892106e-01
<MEAN> 21
 -3.729327e-01 -3.296812e-01 2.853898e+00 -6.428499e-01 -3.345476e-01 2.853560e+00 1.174126e-01 -2.122170e-01 -2.425646e-01 -6.788980e-02 -2.405891e-01 -2.597808e-01 -2.478300e-01 2.845128e-01 -2.208630e-01 2.042202e-01 3.121485e-01 -1.629245e-01 -2.699171e-01 -4.866404e-03 -3.378663e-04
<VARIANCE> 21
 4.586082e-03 1.525196e-03 4.328094e-02 3.667644e-03 1.712733e-03 3.938038e-02 1.000000e-03 1.000000e-03 1.000000e-03 1.012059e-03 1.336445e-03 1.000000e-03 2.038140e-03 1.000000e-03 1.334807e-03 2.387200e-03 1.000746e-03 1.295557e-03 6.345890e-03 1.059898e-03 1.000000e-03
<GCONST> -9.090507e+01
<MIXTURE> 2 6.107898e-01
<MEAN> 21
 -2.481546e-01 -3.640540e-01 2.744746e+00 -7.416371e-01 -3.721044e-01 2.764434e+00 1.303673e-01 -2.464195e-01 -2.293781e-01 -1.026363e-01 -2.779030e-01 -2.201169e-01 -1.592750e-01 2.798102e-01 -2.695160e-01 1.004290e-01 3.050707e-01 -2.248201e-01 -4.934824e-01 -8.050372e-03 1.968798e-02
<VARIANCE> 21
 6.046815e-03 1.662502e-03 6.644383e-02 3.926522e-03 1.573416e-03 5.404881e-02 1.000000e-03 1.000000e-03 1.000000e-03 1.000000e-03 1.022889e-03 2.401216e-03 1.949501e-03 1.140747e-03 1.160052e-03 3.075601e-03 1.630371e-03 1.061717e-03 7.393884e-03 1.000000e-03 2.083976e-03
<GCONST> -8.789889e+01
<STATE> 5
<MEAN> 21
 -1.712033e-01 -4.258922e-01 2.792287e+00 -8.414819e-01 -4.289850e-01 2.789840e+00 1.821419e-01 -2.771713e-01 -2.115608e-01 -1.060504e-01 -2.953478e-01 -1.893177e-01 -7.489379e-02 2.364692e-01 -3.147945e-01 3.729818e-02 2.820054e-01 -2.803922e-01 -6.702787e-01 -3.092803e-03 -2.447519e-03
<VARIANCE> 21
 3.424690e-03 3.510543e-03 5.287682e-02 4.466398e-03 3.579226e-03 4.363110e-02 1.000000e-03 1.000000e-03 1.000000e-03 1.000000e-03 1.000000e-03 1.961998e-03 2.140295e-03 2.842550e-03 1.000000e-03 1.774724e-03 3.123634e-03 1.541522e-03 5.379162e-03 1.000000e-03 2.363089e-03
<GCONST> -8.629767e+01
<TRANSP> 6
 0.000000e+00 1.000000e+00 0.000000e+00 0.000000e+00 0.000000e+00 0.000000e+00
 0.000000e+00 7.216225e-01 2.783775e-01 0.000000e+00 0.000000e+00 0.000000e+00
 0.000000e+00 0.000000e+00 7.876208e-01 2.123792e-01 0.000000e+00 0.000000e+00
 0.000000e+00 0.000000e+00 0.000000e+00 7.773504e-01 2.226496e-01 0.000000e+00
 0.000000e+00 0.000000e+00 0.000000e+00 0.000000e+00 8.758091e-01 1.241909e-01
 0.000000e+00 0.000000e+00 0.000000e+00 0.000000e+00 0.000000e+00 0.000000e+00
<ENDHMM>
~h "spider"
<BEGINHMM>
<NUMSTATES> 6
<STATE> 2
<NUMMIXES> 2
<MIXTURE> 1 7.869212e-01
<MEAN> 21
 -5.076699e-01 -6.135276e-01 3.017238e+00 -5.373541e-01 -6.233791e-01 3.010046e+00 1.293420e-01 -2.663967e-01 -2.081124e-01 -7.864301e-02 -2.240822e-01 -2.324186e-01 -3.244055e-01 6.570135e-02 -3.284719e-01 3.919295e-01 2.380477e-02 -2.262579e-01 -2.968420e-02 -9.851543e-03 -7.192031e-03
<VARIANCE> 21
 1.000000e-03 1.000000e-03 5.182506e-03 1.000000e-03 1.000000e-03 5.186340e-03 1.000000e-03 1.000000e-03 1.000000e-03 1.000000e-03 1.000000e-03 1.000000e-03 1.000000e-03 1.000000e-03 1.144968e-03 1.000000e-03 1.000000e-03 1.331473e-03 1.000000e-03 1.000000e-03 1.000000e-03
<GCONST> -1.027545e+02
<MIXTURE> 2 2.130793e-01
<MEAN> 21
 -4.974656e-01 -5.081738e-01 3.017417e+00 -5.628294e-01 -7.087198e-01 2.965744e+00 1.254209e-01 -2.436320e-01 -2.191762e-01 -1.040097e-01 -2.579193e-01 -1.972509e-01 -3.545622e-01 1.544772e-01 -2.583995e-01 3.619168e-01 -1.669290e-02 -2.829224e-01 -6.536378e-02 -2.005461e-01 -5.167320e-02
<VARIANCE> 21
 3.767629e-03 6.134302e-03 4.491497e-02 6.512776e-03 4.420869e-03 3.928139e-02 1.652262e-03 1.236102e-03 1.668512e-03 1.000000e-03 1.000000e-03 1.338910e-03 1.320800e-03 2.990078e-03 3.011969e-03 1.568730e-03 2.591659e-03 3.559709e-03 4.945909e-03 8.044506e-03 3.344228e-03
<GCONST> -8.093442e+01
<STATE> 3
<NUMMIXES> 2
<MIXTURE> 1 6.033525e-01
<MEAN> 21
 -5.139483e-01 -5.546348e-01 3.034929e+00 -5.401875e-01 -5.659067e-01 3.028208e+00 1.173689e-01 -2.461066e-01 -2.407966e-01 -9.559409e-02 -2.145287e-01 -2.454927e-01 -3.334408e-01 1.044694e-01 -2.793543e-01 3.905813e-01 6.562747e-02 -2.187043e-01 -2.623921e-02 -1.127191e-02 -6.721801e-03
<VARIANCE> 21
 1.000000e-03 1.073725e-03 4.624877e-03 1.000000e-03 1.000000e-03 4.623011e-03 1.000000e-03 1.000000e-03 1.000000e-03 1.000000e-03 1.000000e-03 1.000000e-03 1.000000e-03 1.000000e-03 1.668448e-03 1.000000e-03 1.000000e-03 1.311012e-03 1.000000e-03 1.000000e-03 1.000000e-03
<GCONST> -1.025511e+02
<MIXTURE> 2 3.966472e-01
<MEAN> 21
 -4.140369e-01 -5.823795e-01 2.763514e+00 -4.509278e-01 -5.963766e-01 2.757121e+00 1.095502e-01 -2.477254e-01 -2.270542e-01 -8.337817e-02 -2.189652e-01 -2.576401e-01 -3.520893e-01 7.999117e-02 -2.606923e-01 3.449475e-01 4.322980e-02 -2.189243e-01 -3.689087e-02 -1.399707e-02 -6.393072e-03
<VARIANCE> 21
 1.000000e-03 1.673766e-03 1.262958e-02 1.293309e-03 1.718246e-03 1.264010e-02 1.000000e-03 1.000000e-03 1.000000e-03 1.000000e-03 1.000000e-03 1.000000e-03 1.000000e-03 1.000000e-03 1.000000e-03 1.000000e-03 1.202539e-03 1.000000e-03 1.000000e-03 1.000000e-03 1.000000e-03
<GCONST> -9.989650e+01
<STATE> 4
<NUMMIXES> 2
<MIXTURE> 1 3.364432e-01
<MEAN> 21
 -4.401591e-01 -4.996907e-01 2.939905e+00 -5.049283e-01 -6.878611e-01 2.903833e+00 1.273029e-01 -2.557845e-01 -2.286324e-01 -8.766663e-02 -2.339116e-01 -2.348598e-01 -3.115717e-01 1.704586e-01 -2.771948e-01 3.778684e-01 -3.173705e-02 -2.503813e-01 -6.476914e-02 -1.881705e-01 -3.607260e-02
<VARIANCE> 21
 3.778648e-03 2.230743e-03 3.833601e-02 4.604817e-03 3.534244e-03 3.584194e-02 1.000000e-03 1.000000e-03 1.000000e-03 1.000000e-03 1.000000e-03 1.000000e-03 1.000000e-03 1.772747e-03 2.451838e-03 1.500469e-03 2.380653e-03 1.864821e-03 2.497354e-03 5.478627e-03 1.086597e-03
<GCONST> -8.825581e+01
<MIXTURE> 2 6.635570e-01
<MEAN> 21
 -4.514975e-01 -4.152492e-01 3.087173e+00 -5.592619e-01 -7.199900e-01 3.000834e+00 1.609493e-01 -2.364789e-01 -2.323548e-01 -9.766306e-02 -2.502685e-01 -2.228693e-01 -3.063992e-01 2.285836e-01 -2.446255e-01 3.825974e-01 -4.830850e-02 -2.655085e-01 -1.077644e-01 -3.047408e-01 -8.633948e-02
<VARIANCE> 21
 1.000000e-03 1.328188e-03 6.351538e-03 1.000000e-03 1.359732e-03 5.976287e-03 1.000000e-03 1.000000e-03 1.000000e-03 1.000000e-03 1.000000e-03 1.000000e-03 1.000000e-03 1.000000e-03 1.620170e-03 1.000000e-03 1.000000e-03 1.458407e-03 1.051307e-03 1.675069e-03 1.000000e-03
<GCONST> -1.008141e+02
<STATE> 5
<MEAN> 21
 -4.261745e-01 -4.984428e-01 3.034475e+00 -5.630206e-01 -6.600283e-01 2.929050e+00 1.511037e-01 -2.508256e-01 -2.241371e-01 -1.054184e-01 -2.330765e-01 -2.361517e-01 -2.963479e-01 1.626583e-01 -2.591008e-01 3.640308e-01 -2.836218e-03 -2.898716e-01 -1.368461e-01 -1.615855e-01 -1.054254e-01
<VARIANCE> 21
 3.891849e-03 3.848480e-03 5.928450e-02 4.929132e-03 4.135923e-03 4.805483e-02 1.000000e-03 1.000000e-03 1.398328e-03 1.000000e-03 1.285609e-03 2.288210e-03 2.682375e-03 2.190705e-03 5.338424e-03 1.625123e-03 2.497229e-03 4.030684e-03 4.493856e-03 7.188955e-03 4.555573e-03
<GCONST> -8.014487e+01
<TRANSP> 6
 0.000000e+00 1.000000e+00 0.000000e+00 0.000000e+00 0.000000e+00 0.000000e+00
 0.000000e+00 8.623802e-01 1.376198e-01 0.000000e+00 0.000000e+00 0.000000e+00
 0.000000e+00 0.000000e+00 8.633497e-01 1.366504e-01 0.000000e+00 0.000000e+00
 0.000000e+00 0.000000e+00 0.000000e+00 7.910367e-01 2.089633e-01 0.000000e+00
 0.000000e+00 0.000000e+00 0.000000e+00 0.000000e+00 4.119406e-01 5.880594e-01
 0.000000e+00 0.000000e+00 0.000000e+00 0.000000e+00 0.000000e+00 0.000000e+00
<ENDHMM>
~h "under"
<BEGINHMM>
<NUMSTATES> 6
<STATE> 2
<NUMMIXES> 2
<MIXTURE> 1 5.294024e-01
<MEAN> 21
 -3.947704e-01 -6.108931e-01 2.601718e+00 -4.483462e-01 -4.499323e-01 2.597927e+00 1.156609e-01 -2.819792e-01 -1.801895e-01 -1.068436e-01 -2.068658e-01 -2.856253e-01 -3.438203e-01 8.063220e-02 -2.939963e-01 3.548082e-01 1.630462e-01 -1.751122e-01 -5.357575e-02 1.609609e-01 -3.791176e-03
<VARIANCE> 21
 1.062791e-03 5.519026e-03 3.912157e-02 1.205459e-03 2.635443e-03 4.643240e-02 1.000000e-03 1.000000e-03 1.022529e-03 1.000000e-03 1.923329e-03 1.502738e-03 1.199980e-03 4.138257e-03 1.769792e-03 1.303827e-03 1.727213e-03 2.379174e-03 1.757365e-03 5.413609e-03 3.868074e-03
<GCONST> -8.749664e+01
<MIXTURE> 2 4.705978e-01
<MEAN> 21
 -3.958170e-01 -5.643323e-01 2.778179e+00 -5.794672e-01 -5.742470e-01 2.661157e+00 1.358956e-01 -2.791545e-01 -1.897616e-01 -1.081805e-01 -2.399271e-01 -2.442491e-01 -3.167835e-01 1.205006e-01 -2.887320e-01 2.791754e-01 8.237305e-02 -3.207580e-01 -1.836502e-01 -9.914687e-03 -1.170214e-01
<VARIANCE> 21
 5.674157e-03 4.650842e-03 9.437063e-02 9.374529e-03 8.818436e-03 6.836256e-02 1.000000e-03 1.204908e-03 1.442663e-03 1.000000e-03 1.101312e-03 2.856820e-03 2.219055e-03 3.531597e-03 3.101019e-03 3.464143e-03 4.884321e-03 2.497534e-03 7.783941e-03 1.638653e-02 6.737788e-03
<GCONST> -7.461785e+01
<STATE> 3
<NUMMIXES> 2
<MIXTURE> 1 8.531315e-01
<MEAN> 21
 -4.840405e-01 -6.814350e-01 3.030216e+00 -5.779365e-01 -4.910696e-01 3.031474e+00 1.236369e-01 -3.058947e-01 -1.781685e-01 -1.098334e-01 -2.389013e-01 -2.479352e-01 -3.081239e-01 3.951499e-02 -3.258640e-01 3.682688e-01 1.650000e-01 -1.811858e-01 -9.389596e-02 1.903654e-01 1.258730e-03
<VARIANCE> 21
 1.000000e-03 1.983336e-03 7.754143e-03 1.000000e-03 1.652482e-03 7.900128e-03 1.000000e-03 1.000000e-03 1.000000e-03 1.000000e-03 1.000000e-03 1.000000e-03 1.000000e-03 1.858844e-03 1.661093e-03 1.000000e-03 1.402620e-03 2.714341e-03 1.035342e-03 1.243585e-03 4.645104e-03
<GCONST> -9.691241e+01
<MIXTURE> 2 1.468686e-01
<MEAN> 21
 -4.738983e-01 -5.020528e-01 2.859363e+00 -6.032864e-01 -5.548760e-01 2.851422e+00 1.319247e-01 -2.754558e-01 -1.750759e-01 -1.069541e-01 -2.405173e-01 -2.328580e-01 -3.470656e-01 1.865564e-01 -3.642893e-01 2.938159e-01 1.002336e-01 -2.595084e-01 -1.293881e-01 -5.282312e-02 -7.940967e-03
<VARIANCE> 21
 1.338145e-02 7.270675e-03 5.357068e-02 1.373627e-02 2.221347e-02 5.347343e-02 1.000000e-03 2.322727e-03 1.431946e-03 1.000000e-03 1.488928e-03 2.192278e-03 4.860653e-03 4.687344e-03 9.940444e-03 8.373401e-03 1.270531e-02 3.278104e-03 2.802162e-02 4.007768e-02 3.037493e-03
<GCONST> -6.641220e+01
<STATE> 4
<NUMMIXES> 2
<MIXTURE> 1 5.503094e-01
<MEAN> 21
 -3.977338e-01 -5.795758e-01 2.945887e+00 -6.206077e-01 -5.357651e-01 2.929169e+00 1.268171e-01 -3.060085e-01 -1.837732e-01 -1.198495e-01 -2.611912e-01 -2.110678e-01 -2.447957e-01 1.415894e-01 -3.510442e-01 3.151409e-01 1.408067e-01 -2.758139e-01 -2.228740e-01 4.381070e-02 -1.671859e-02
<VARIANCE> 21
 2.039257e-03 3.618564e-03 1.037220e-02 1.910453e-03 2.173267e-03 8.661879e-03 1.000000e-03 1.000000e-03 1.063533e-03 1.000000e-03 1.000000e-03 1.000000e-03 1.165812e-03 3.472670e-03 1.830725e-03 1.111529e-03 2.113939e-03 2.641756e-03 2.302174e-03 5.023142e-03 3.192480e-03
<GCONST> -9.104805e+01
<MIXTURE> 2 4.496905e-01
<MEAN> 21
 -3.353598e-01 -4.509462e-01 2.921676e+00 -6.777931e-01 -6.759241e-01 2.784313e+00 1.285941e-01 -2.902556e-01 -1.885078e-01 -1.233882e-01 -2.730704e-01 -2.022520e-01 -2.090070e-01 2.537803e-01 -2.943717e-01 2.367078e-01 1.426957e-02 -3.653659e-01 -3.424333e-01 -2.249779e-01 -1.373629e-01
<VARIANCE> 21
 4.258383e-03 5.960932e-03 3.767294e-02 5.730130e-03 8.498521e-03 3.611994e-02 1.000000e-03 1.822981e-03 1.071782e-03 1.000000e-03 1.000000e-03 2.585774e-03 2.731303e-03 3.858261e-03 3.937604e-03 3.515443e-03 6.059513e-03 3.027152e-03 4.125032e-03 1.785708e-02 5.306641e-03
<GCONST> -7.665167e+01
<STATE> 5
<MEAN> 21
 -2.864037e-01 -3.844979e-01 2.864248e+00 -6.992685e-01 -7.911105e-01 2.698951e+00 1.390540e-01 -2.724120e-01 -1.889799e-01 -1.162620e-01 -2.864967e-01 -1.669178e-01 -2.076274e-01 2.998480e-01 -2.352575e-01 1.745225e-01 -8.479924e-02 -3.905746e-01 -4.128647e-01 -4.066126e-01 -1.652970e-01
<VARIANCE> 21
